tree
version=v3
num_class=6
num_tree_per_iteration=6
label_index=0
max_feature_idx=106
objective=multiclass num_class:6
feature_names=Column_0 Column_1 Column_2 Column_3 Column_4 Column_5 Column_6 Column_7 Column_8 Column_9 Column_10 Column_11 Column_12 Column_13 Column_14 Column_15 Column_16 Column_17 Column_18 Column_19 Column_20 Column_21 Column_22 Column_23 Column_24 Column_25 Column_26 Column_27 Column_28 Column_29 Column_30 Column_31 Column_32 Column_33 Column_34 Column_35 Column_36 Column_37 Column_38 Column_39 Column_40 Column_41 Column_42 Column_43 Column_44 Column_45 Column_46 Column_47 Column_48 Column_49 Column_50 Column_51 Column_52 Column_53 Column_54 Column_55 Column_56 Column_57 Column_58 Column_59 Column_60 Column_61 Column_62 Column_63 Column_64 Column_65 Column_66 Column_67 Column_68 Column_69 Column_70 Column_71 Column_72 Column_73 Column_74 Column_75 Column_76 Column_77 Column_78 Column_79 Column_80 Column_81 Column_82 Column_83 Column_84 Column_85 Column_86 Column_87 Column_88 Column_89 Column_90 Column_91 Column_92 Column_93 Column_94 Column_95 Column_96 Column_97 Column_98 Column_99 Column_100 Column_101 Column_102 Column_103 Column_104 Column_105 Column_106
feature_infos=[-34.73944225010851:463.73920497930681] [-575880.08980878419:860586.44135645113] [-2.1575271315245659:3.3732887181156874] [-3.0559753091340447:14.456152553860129] [-105.66825854060858:1750.7109734802305] [-27.202964321901771:143.50720945195096] [-42.635150217540605:137.22590789120056] [-1863152987800.8967:5675041012972.6797] [-2433072.9261156376:7268554.2626902796] [-11555874868356308:35740143998680920] [-1.8634514892860861:3.5000251917625063] [-158.73014494152886:2515.2069674879285] [-778972.60847658338:4308535.015851615] [-68.427193443253799:227.78014098062772] [-70.340263201387103:233.86674774004632] [-1.4644943548900944:9.1177269021449714] [-104794173227663.31:312231411168398.69] [-122926.75306171436:673162.60577803338] [-638012.05822956539:3601973.4981176821] [-107.04671766689376:405.20346734667646] [-3942.8590785928391:5799.0741209586668] [-576604.77316803858:3133947.3916492029] [-0.1956982461025816:6.0759444017424027] [-157.82169595807972:2544.0020880914931] [-3.6669596589321238:17.419077689772827] [-317675.79625656537:1763780.5695913979] [-200710.54945682731:1086125.0097024194] [-60.974660100449121:197.75505912755489] [-131.07663369475011:2317.9355308738109] [-1.7313020610364267:8.2194558187581617] [-61.944813128322643:200.96609198865079] [-231.8869619749716:1046.793475212256] [-87.763636192737309:128.81707069241804] [-67.84530674988801:225.38037077618085] [-4.0163730369664954:19.019894742277813] [-67.608476254004216:237.67115919267209] [-44478539175333.406:132748873957576.05] [-963897.4990290032:5392607.4935897514] [-17.182350989437243:170.53768418088208] [-4736314769.9025574:14256603156.197638] [-753364.44937879848:4066250.052565685] [-87.70575072389326:1447.6547892079857] [-13189363760.036064:40696791891.41449] [-5226683.7150253234:15926711.063552313] [-48.831846519802028:301.56125423733874] [-3.0960771925263328:32.721315369390496] [-65.390544535649411:304.79274486539106] [-836746.35355688573:4738262.4702774268] [-2482308419.9118128:7590517706.3950987] [-152.28502995179997:497.34996659334951] [-3.5686787349710727:16.379657557867073] [-23599248682340976:75385972779358016] [-814388.85338824987:4731140.4166532652] [-2.9036868063723009:14.321201857974806] [-568105.70860979846:861737.62573383807] [-717302.12159015099:4213111.0706350524] [-97.921423432853658:540.25273530567233] none [-417935.36524005438:1256999.412060672] [-60.218738222874578:199.61663709522875] [-141603175.52254432:218512028.34329093] [-2149309.5198409827:6482513.7873045299] [-2.4149193690977881:11.591278590082316] [-118.86293372778844:2008.5755091527551] [-2248.7383948386896:3357.0269521288933] [-21.962733992990589:32.990078623434911] [-105361115363686.94:314167455716390.19] [-292.26642678922354:1445.621102097095] [-642499.94316724292:3501082.4768428239] [-1051125.6353370887:5646474.7360683829] [-79.840766257106139:1203.8750995887954] [-2.7779131444095864:11.959249096830726] [-26361481.592488971:81205979.705518782] [-3.3954390668492769:16.442611012915975] [-3.9495731395343441:20.664464946858992] [-180.64181067926361:3059.9461092479082] [-60.411839936260606:201.86841051316949] none [-8768.5846846013083:13291.803107587086] [-47302144556668224:1.4500054755385645e+17] [-1.7231294531440111:2.6135518862399567] [-259.86795590167907:896.38506956094727] [-129436432354.07166:388526476551.3739] [-1.8588951650517056:8.7276338128455269] [-484793327367386.88:1495451359893700.8] [-0.064714166579744895:7.999978662646372] [-48575769533653.188:147852360250632.94] [-466711750308.81982:1434837941561.8442] [-35178.098023931052:54047.458055763789] [-1763340014.4909997:5309526849.856349] [-922549.95899715857:5054894.6975798961] [-45274416045659.523:138184443483141.09] [-2226.4299042921684:3347.8785679443745] [-1034271.8710799646:5539037.5505004888] [-85449824.062673867:263175763.51318988] [-51.597235473779648:821.43353253519956] [-3179075.109413153:9632285.2937758844] [-61.447707179921466:199.72554997243515] [-304922.23010696162:1708343.6883522731] [-101.31552897999384:1672.9435827019199] none [-2135493647.7211485:6622074937.8600893] [-74.79761788526524:1311.1563009982644] [-3.6421600851254778:16.981625910683814] [-3.241167243987308:17.690674180278126] [-70.153338420144138:235.97510222461744] [-103.88324456283092:1602.4512270425605]
tree_sizes=773 754 759 756 759 757 776 769 774 769 772 778 780 769 774 767 777 776 775 769 771 769 779 777 780 768 776 770 776 778 781 769 776 775 774 774 772 770 776 775 776 772 775 765 776 773 774 778 776 770 776 772 780 776 775 772 775 775 777 772 783 770 776 772 778 776 783 774 772 774 777 774 782 769 782 770 778 776 777 770 782 775 780 776 779 771 782 778 779 777 779 771 781 774 780 777 778 770 777 774 781 776 778 775 779 774 778 775 780 780 780 783 782 776 781 777 779 776 775 776 780 780 780 781 779 774 783 775 779 785 780 777 784 781 779 778 781 777 778 776 779 785 780 776 784 778 777 779 780 774 782 779 780 777 776 770 781 782 775 780 776 776 776 779 778 781 780 776 781 780 776 783 783 778 779 782 775 779 780 776 782 780 776 781 782 780 783 780 772 782 784 776 779 779 783 783 781 775 782 779 779 777 782 777 780 781 784 783 782 780 776 780 780 785 778 777 785 781 785 782 775 779 778 783 784 783 775 774 779 780 775 779 774 779 787 780 782 783 776 778 777 778 781 778 774 780 783 782 781 777 778 780 776 782 773 783 776 776 781 784 783 781 774 781 783 785 776 785 776 778 779 781 779 773 777 779 781 783 783 782 777 779 780 782 783 781 780 782 780 784 778 782 778 774 777 783 780 778 778 778 782 779 780 781 778 778 777 783 785 779 781 778 777 783 777 783 776 772 783 783 779 781 781 778 780 783 779 782 776 778 781 781 779 782 779 778 788 781 781 783 780 779 788 781 782 781 778 777 780 781 783 784 782 778 785 781 777 782 768 780 781 784 780 775 780 775 783 783 782 783 779 780 785 784 774 778 780 780 778 786 785 778 778 777 780 782 782 779 775 778 780 782 781 780 779 778 782 782 783 776 774 778 782 785 779 777 775 781 777 783 775 778 778 782 778 785 781 780 778 779 782 780 785 777 780 782 782 783 780 779 777 776 787 781 781 773 779 777 781 778 782 779 777 779 788 786 782 777 775 774 785 784 777 777 780 777 786 784 779 778 778 779 780 778 784 778 780 778 788 784 778 778 776 778 783 783 779 780 781 778 789 783 783 778 777 779 785 785 778 781 781 779 789 783 783 779 782 774 781 779 786 778 781 778 785 781 785 779 780 781 790 785 776 779 779 778 783 782 784 781 784 775 789 781 778 781 780 776 786 783 782 782 778 777 791 784 781 780 783 775 786 784 782 780 781 779 784 780 781 781 783 773 786 784 782 782 778 773 784 782 778 776 782 769 786 785 785 781 776 775 787 782 779 779 780 778 784 784 783 780 784 779 786 783 783 782 783 777 790 777 781 779 783 777 783 778 780 781 780 778 788 775 784 779 781 775 785 781 777 782 785 772 784 777 777 783 781 779 788 781 779 786 784 776 784 774 782 782 783 780 790 782 788 782 779 777 785 782 780 782 784 780 786 777 780 780 784 778 785 782 783 784 780 776 783 783 791 782 782 776 787 781 780 781 785 777 781 777 784 780 784 775 789 782 785 780 778 779 788 779 785 781 780 781 782 781 784 785 783 779 781 775 778 779 783 781 789 782 793 783 785 780 784 777 781 780 778 775 784 782 781 778 781 783 786 778 793 781 785 776 791 778 779 780 781 780 784 784 785 782 779 780 790 779 784 781 777 784 786 780 786 779 784 780 784 778 791 784 779 780 783 781 785 784 776 781 780 779 783 779 780 784 790 780 777 781 781 784 783 777 782 779 783 782 786 783 781 785 777 785 785 778 783 783 778 786 782 779 774 780 781 784 787 786 782 782 785 785 777 776 775 779 779 784 792 782 790 776 783 784 785 782 787 779 779 782 779 779 793 786 781 782 787 786 784 782 783 781 786 779 780 778 776 784 782 783 787 778 779 787 784 786 783 786 777 777 785 781 779 786 776 785 783 782 786 787 781 785 782 784 792 784 780 783 783 783 778 781 781 782 785 781 785 780 778 784 788 786 780 781 778 784 785 779 778 785 777 785 786 781 785 784 782 785 780 782 784 781 781 784 789 780 788 783 772 785 782 784 784 782 783 782 784 780 781 786 778 786 782 779 784 782 780 785 786 788 779 783 781 784 782 780 784 785 777 782 785 782 780 782 782 783 789 781 779 782 776 786 786 782 784 783 777 784 785 781 784 787 778 784 783 783 782 784 775 785 786 779 785 781 783 784 785 783 783 783 778 784 789 782 785 784 778 786 778 783 782 785 779 784 783 785 777 785 776 781 782 783 785 786 779 782 787 780 782 785 774 784 784 784 781 779 779 782 782 778 784 784 783 784 782 785 792 784 777 783 792 781 785 785 780 781 781 785 781 782 775 780 784 787 788 787 781 785 778 782 783 785 784 783 791 784 783 782 783 780 786 781 777 788 785 789 786 786 783 788 782 785 790 783 790 782 782 782 779 784 783 786 782 782 785 787 784 783 782 782 792 781 776 784 782 781 782 778 792 784 782 779 787 782 781 787 783 783 782 781 783 784 781 786 785 782 784 783 778 782 780 779 785 784 779 779 783 783 779 785 782 783 790 777 784 783 775 781 781 782 790 785 775 785 791 781 783 780 783 786 784 781 771 783 780 781 787 783 779 785 783 783 781 783 775 784 778 782 789 779 786 781 782 778 784 781 784 786 782 784 784 782 779 784 781 784 783 784 786 782 784 786 787 783 791 787 779 785 783 784 775 787 776 786 791 780 787 784 783 781 785 784 784 783 778 779 779 783 779 776 781 784 786 781 786 788 774 786 780 785 777 786 782 786 777 782 794 782 776 782 789 783 787 783 781 787 783 785 778 786 779 782 787 780 784 780 776 786 782 782 788 785 778 781 778 783 786 784 780 785 787 785 779 782 777 781 783 779 788 783 782 787 791 783 790 783 786 784 783 782 777 790 781 775 778 783 784 783 774 785 787 784 787 784 783 787 789 779 783 786 782 779 781 783 781 784 783 783 777 781 777 785 784 787 784 779 783 782 780 782 782 780 787 783 781 779 785 785 785 788 785 786 781 783 779 784 772 776 783 780 787 781 778 787 782 777 777 784 781 785 784 778 784 781 779 782 787 784 785 784 783 779 788 781 782 786 784 789 783 776 787 786 779 783 790 778 787 784 780 779 784 780 790 786 784 785 789 780 780 785 772 784 785 783 791 788 777 780 793 782 786 784 780 787 782 781 783 781 778 778 784 781 773 782 777 781 788 783 787 783 784 786 785 784 782 785 785 782 783 781 784 782 778 789 784 782 784 782 779 780 791 779 788 785 778 778 779 780 782 786 783 779 783 777 786 784 785 782 782 783 789 778 780 784 782 784 785 784 775 791 786 778 788 779 778 779 788 780 790 785 781 779 779 782 788 781 774 781 785 779 782 785 783 781 785 783 785 782 777 780 787 785 785 783 779 785 782 785 784 781 783 782 782 783 779 781 785 783 782 785 787 784 775 782 783 788 786 787 780 780 787 780 786 781 780 782 786 781 778 784 781 786 786 786 789 783 778 784 785 782 785 782 784 778 788 785 785 780 785 778 786 784 786 783 783 780 785 784 783 783 781 781 783 787 785 786 779 791 783 785 790 787 782 785 787 789 782 785 781 780 784 786 786 785 779 780 786 782 790 783 778 781 784 784 781 782 783 786 788 787 790 786 782 786 788 783 768 782 784 773 787 786 783 780 783 787 788 785 782 786 779 782 788 786 785 780 780 782 784 783 782 782 784 780 784 786 779 781 779 780 784 785 779 785 785 780 787 788 789 783 777 783 787 781 784 787 782 781 786 787 771 781 781 783 786 783 786 784 781 781 786 787 779 782 781 784 783 785 785 783 780 778 788 788 781 783 786 785 785 787 769 784 777 782 787 785 790 781 783 782 784 780 783 780 779 779 789 785 784 785 781 774 782 783 789 784 782 782 789 786 783 781 786 785 786 779 785 784 780 780 784 785 785 788 782 780 783 785 780 785 781 780 787 786 787 785 780 783 788 783 787 783 785 783 787 788 787 784 781 778 785 784 770 782 783 778 790 783 779 783 784 783 781 783 789 787 781 785 785 780 789 781 785 778 786 787 786 783 784 790 787 785 787 783 779 779 789 780 772 786 783 784 787 784 783 783 783 788 782 789 787 784 780 781 786 783 787 780 781 781 785 781 790 781 787 785 785 786 789 784 786 779 787 787 781 788 782 779 788 781 771 785 784 785 787 784 779 782 781 780 784 788 787 782 784 785 788 787 787 787 781 781 785 789 780 782 776 785 783 783 782 780 782 771 780 786 792 784 780 778 786 779 786 782 785 788 790 781 784 786 783 777 791 788 789 781 781 779 787 787 789 780 785 786 783 785 787 785 779 789 787 781 783 783 785 782 784 783 787 786 785 779 784 782 785 782 783 790 787 786 782 784 783 782 789 788 783 783 784 785 788 781 790 785 779 781 786 788 786 784 785 780 783 782 779 780 783 781 788 780 790 782 783 791 787 783 784 788 786 783 787 784 790 781 782 783 787 788 787 780 788 775 790 782 787 780 783 778 786 781 785 784 784 781 786 781 781 781 785 789 787 781 772 785 785 786 787 778 788 784 785 781 790 784 785 780 787 779 786 782 790 781 786 780 776 786 781 779 786 783 788 778 787 784 784 784 783 781 786 784 782 786 783 782 788 783 785 781 785 780 784 784 782 784 785 781 791 779 784 787 789 788 786 784 785 781 786 786 783 785 787 790 783 788 789 781 784 784 787 777 786 783 785 777 784 778 788 780 785 785 783 785 789 786 783 790 785 779 783 782 782 789 786 786 783 784 785 776 785 778 789 779 786 790 784 783 785 785 784 787 791 782 787 786 786 785 784 789 791 781 785 782 788 783 782 785 783 787 780 786 787 780 785 785 787 782 791 786 782 776 789 782 781 779 784 784 785 776 785 781 778 781 791 781 781 782 782 781 790 784 788 782 783 786

Tree=0
num_leaves=6
num_cat=0
split_feature=5 10 46 22 22
split_gain=1655.16 623.798 579.055 547.684 313.863
threshold=15.721066521034386 1.0442672286911496 28.837070423275446 0.62388389870393246 0.94886008272325417
decision_type=2 8 2 10 10
left_child=1 -1 3 -3 -2
right_child=4 2 -4 -5 -6
leaf_value=-0.67958883802616155 -0.65130221698713875 -0.66037617155297035 -0.67547888473829831 -0.68183956769458365 -0.68163229672061088
leaf_weight=464.31455075740814 782.35053420066833 1073.4089130163193 508.07822048664093 133.6890184879303 35.670388340950012
leaf_count=1549 2610 3581 1695 446 119
internal_value=-0.664754 -0.669307 -0.666523 -0.662753 -0.652625
internal_weight=0 2179.49 1715.18 1207.1 818.021
internal_count=10000 7271 5722 4027 2729
is_linear=0
shrinkage=1


Tree=1
num_leaves=6
num_cat=0
split_feature=45 10 2 85 48
split_gain=1975.87 1463.08 563.891 222.61 151.122
threshold=4.8506809777360695 0.54586268901596469 2.0032682043635095 0.26241558645969693 2422076064.9288545
decision_type=10 8 10 8 8
left_child=1 -1 -3 -2 -4
right_child=3 2 4 -5 -6
leaf_value=-2.2118506111721938 -2.2130140838080608 -2.250469755315696 -2.1794363446566796 -2.1686811572846327 -2.238751458309463
leaf_weight=116.525704421103 16.516351066529751 949.51932752132416 14.238233678042887 36.108160607516766 6.1509169489145306
leaf_count=1023 145 8336 125 317 54
internal_value=-2.24243 -2.24533 -2.24935 -2.18259 -2.19733
internal_weight=0 1086.43 969.908 52.6245 20.3892
internal_count=10000 9538 8515 462 179
is_linear=0
shrinkage=1


Tree=2
num_leaves=6
num_cat=0
split_feature=71 44 45 10 71
split_gain=1897.37 829.451 370.892 268.303 232.553
threshold=0.97391982258548027 41.793847891997167 1.9739552567375369 1.0587942397526227 0.17719367811458303
decision_type=8 2 10 8 10
left_child=1 3 -3 -1 -5
right_child=-2 2 -4 4 -6
leaf_value=-1.8057539027005756 -1.8325307789155623 -1.7834184060853497 -1.8316733490642108 -1.8258973261608387 -1.7987950187995438
leaf_weight=143.34514130651951 1045.1370551884174 128.40997369587421 18.18194317817688 252.11212281882763 36.20154757797718
leaf_count=883 6438 791 112 1553 223
internal_value=-1.82449 -1.80996 -1.7894 -1.81693 -1.82249
internal_weight=0 578.251 146.592 431.659 288.314
internal_count=10000 3562 903 2659 1776
is_linear=0
shrinkage=1


Tree=3
num_leaves=6
num_cat=0
split_feature=15 15 5 5 71
split_gain=1815.99 3238.37 707.842 282.514 191.143
threshold=0.61076785172821546 0.10746616334492076 7.0215365077606675 16.632802697647751 1.0110507439135776
decision_type=8 10 2 2 8
left_child=1 2 -1 4 -3
right_child=-2 3 -4 -5 -6
leaf_value=-2.3739862983100863 -2.4337845986250901 -2.4150280296895485 -2.4323308826989831 -2.4350099985193396 -2.3331509346375552
leaf_weight=24.078930214047432 725.75249500572681 2.9977784603834161 152.20978376269341 3.0944809913635245 58.891841366887093
leaf_count=249 7505 31 1574 32 609
internal_value=-2.42588 -2.40212 -2.42436 -2.34178 -2.33712
internal_weight=0 241.273 176.289 64.9841 61.8896
internal_count=10000 2495 1823 672 640
is_linear=0
shrinkage=1


Tree=4
num_leaves=6
num_cat=0
split_feature=10 10 33 10 49
split_gain=1714.38 4737.33 185.366 89.9983 174.067
threshold=0.80084154163045951 0.54586268901596469 29.369881577329558 0.92051801008022782 68.541898355468604
decision_type=8 10 2 10 10
left_child=1 -1 -3 4 -2
right_child=3 2 -4 -5 -6
leaf_value=-2.9019971059625371 -2.8942229527128438 -2.7465466645725893 -2.8490338332436118 -2.9019976637138041 -2.8326458257987168
leaf_weight=67.318394660949707 72.02817040681839 29.200609624385837 1.883910298347472 452.64084768295288 4.8981667757034293
leaf_count=1072 1147 465 30 7208 78
internal_value=-2.89318 -2.85485 -2.75275 -2.9003 -2.8903
internal_weight=0 98.4029 31.0845 529.567 76.9263
internal_count=10000 1567 495 8433 1225
is_linear=0
shrinkage=1


Tree=5
num_leaves=6
num_cat=0
split_feature=22 22 22 10 15
split_gain=6945.29 85.7644 50.7802 57.5009 48.079
threshold=0.62388389870393246 0.94886008272325417 0.62388389870393246 1.0741518523302336 1.0211575974844604
decision_type=10 10 8 8 10
left_child=2 -2 -1 -4 -5
right_child=1 -3 3 4 -6
leaf_value=-2.6083348795075971 -2.5446010048774559 -2.4876904576873913 -2.6084352520045537 -2.605903629015776 -2.5854479370560242
leaf_weight=673.9841452986002 2.8062038868665686 51.749701090157032 47.540395259857178 18.240325264632702 31.033313572406769
leaf_count=8166 34 627 576 221 376
internal_value=-2.59964 -2.49061 -2.60736 -2.60059 -2.59302
internal_weight=0 54.5559 770.798 96.814 49.2736
internal_count=10000 661 9339 1173 597
is_linear=0
shrinkage=1


Tree=6
num_leaves=6
num_cat=0
split_feature=5 10 46 22 22
split_gain=1616.39 605.823 565.867 532.709 305.87
threshold=15.721066521034386 1.0442672286911496 28.837070423275446 0.62388389870393246 0.94886008272325417
decision_type=2 8 2 10 10
left_child=1 -1 3 -3 -2
right_child=4 2 -4 -5 -6
leaf_value=-0.014625073807483549 0.013300065988703614 0.0043212980576680573 -0.010602805109026446 -0.01684114771648005 -0.016632964348351799
leaf_weight=464.56752446293831 781.83812257647514 1073.1682693362236 508.25242620706558 133.77070838212967 35.692276984453201
leaf_count=1549 2610 3581 1695 446 119
internal_value=0 -0.00449535 -0.00175163 0.0019757 0.0119931
internal_weight=0 2179.76 1715.19 1206.94 817.53
internal_count=10000 7271 5722 4027 2729
is_linear=0
shrinkage=0.01


Tree=7
num_leaves=6
num_cat=0
split_feature=45 10 2 10 48
split_gain=1853.87 1408.15 540.706 200.079 134.865
threshold=4.8506809777360695 0.54586268901596469 2.0032682043635095 1.0696617515421767 2422076064.9288545
decision_type=10 8 10 8 8
left_child=1 -1 -3 -2 -4
right_child=3 2 4 -5 -6
leaf_value=0.02945161562976038 0.013672912417025595 -0.0080206946477127169 0.059269949854419322 0.064966975852878472 0.0036734506796882796
leaf_weight=119.80806892365217 9.1091932579874975 942.84710163623095 14.996811799705027 46.124446220695972 6.1536083593964603
leaf_count=1023 77 8336 125 385 54
internal_value=0 -0.00288045 -0.00689889 0.0565095 0.0430991
internal_weight=0 1083.81 963.998 55.2336 21.1504
internal_count=10000 9538 8515 462 179
is_linear=0
shrinkage=0.01


Tree=8
num_leaves=6
num_cat=0
split_feature=71 44 85 10 71
split_gain=1849.72 778.098 346.556 256.618 224.094
threshold=0.97391982258548027 41.793847891997167 0.065050661334242366 1.0587942397526227 0.17719367811458303
decision_type=8 2 10 8 10
left_child=1 3 -3 -1 -5
right_child=-2 2 -4 4 -6
leaf_value=0.018252551328298415 -0.0080131825771721042 0.039345000276891348 -0.0076902283760484367 -0.0013997881196321849 0.02499034856007102
leaf_weight=145.60588978230953 1038.1909529268742 132.90737310051918 17.756080105900764 251.92042747139931 36.883671313524246
leaf_count=883 6438 794 109 1553 223
internal_value=0 0.01422 0.0338017 0.00742836 0.00197092
internal_weight=0 585.073 150.663 434.41 288.804
internal_count=10000 3562 903 2659 1776
is_linear=0
shrinkage=0.01


Tree=9
num_leaves=6
num_cat=0
split_feature=15 15 5 5 19
split_gain=1761.42 2890.84 667.113 240.004 169.796
threshold=0.61076785172821546 0.10746616334492076 7.0215365077606675 16.632802697647751 26.728520695528811
decision_type=8 10 2 2 2
left_child=1 2 4 -3 -1
right_child=-2 3 -4 -5 -6
leaf_value=0.065073222176970633 -0.0078866405004203947 0.081504136764490767 -0.0064203893189797683 -0.0091141918970442971 0.0067980980529085888
leaf_weight=18.309557601809505 720.9758986979723 66.790725126862526 151.08920577913523 3.0554576814174643 6.8791846334934226
leaf_count=181 7505 640 1574 32 68
internal_value=0 0.0230966 0.00152314 0.0775396 0.0491625
internal_weight=0 246.124 176.278 69.8462 25.1887
internal_count=10000 2495 1823 672 249
is_linear=0
shrinkage=0.01


Tree=10
num_leaves=6
num_cat=0
split_feature=10 10 33 10 49
split_gain=1628.04 3949.75 121.502 89.5588 162.142
threshold=0.80084154163045951 0.54586268901596469 27.710803182973176 0.92051801008022782 68.541898355468604
decision_type=8 10 2 10 10
left_child=1 -1 -3 4 -2
right_child=3 2 -4 -5 -6
leaf_value=-0.0088173676338002965 -0.0010368325880861925 0.12630976837027055 0.047913593610570591 -0.0088172440525178288 0.056957712972339779
leaf_weight=66.819935530424118 71.937880542129278 33.42340774834156 2.1098057478666297 448.73035406321287 5.1620894894003859
leaf_count=1072 1147 463 32 7208 78
internal_value=0 0.0364841 0.121662 -0.00710659 0.00284953
internal_weight=0 102.353 35.5332 525.83 77.1
internal_count=10000 1567 495 8433 1225
is_linear=0
shrinkage=0.01


Tree=11
num_leaves=6
num_cat=0
split_feature=22 22 22 10 15
split_gain=6196.81 63.8431 50.7059 56.7842 46.637
threshold=0.62388389870393246 0.94886008272325417 0.62388389870393246 1.0741518523302336 1.0211575974844604
decision_type=10 10 8 8 10
left_child=2 -2 -1 -4 -5
right_child=1 -3 3 4 -6
leaf_value=-0.0086815133547199583 0.051954547979888965 0.099817904282448286 -0.0087833322468607433 -0.0062330391807896273 0.013917552859012543
leaf_weight=668.42998392879963 2.9467290490865699 57.47469836473465 47.177861109375954 18.105205655097961 31.398217238485813
leaf_count=8166 34 627 576 221 376
internal_value=0 0.0974881 -0.00770246 -0.000933415 0.00654786
internal_weight=0 60.4214 765.111 96.6813 49.5034
internal_count=10000 661 9339 1173 597
is_linear=0
shrinkage=0.01


Tree=12
num_leaves=6
num_cat=0
split_feature=5 10 46 22 22
split_gain=1578.78 588.842 552.969 518.325 298.148
threshold=15.721066521034386 1.0442672286911496 28.837070423275446 0.62388389870393246 0.94886008272325417
decision_type=2 8 2 10 10
left_child=1 -1 3 -3 -2
right_child=4 2 -4 -5 -6
leaf_value=-0.014425028636826261 0.013151992359512095 0.0042657379914723603 -0.010482596896412023 -0.016607359351427712 -0.016398294623592886
leaf_weight=464.67819312214851 781.17585900425911 1072.877637475729 508.35939028859138 133.79948318004608 35.699973255395889
leaf_count=1549 2610 3581 1695 446 119
internal_value=0 -0.00443981 -0.00173435 0.00195122 0.0118605
internal_weight=0 2179.71 1715.04 1206.68 816.876
internal_count=10000 7271 5722 4027 2729
is_linear=0
shrinkage=0.01


Tree=13
num_leaves=6
num_cat=0
split_feature=45 10 2 10 48
split_gain=1746.26 1356.8 519.689 177.212 121.239
threshold=4.8506809777360695 0.54586268901596469 2.0032682043635095 1.0696617515421767 2422076064.9288545
decision_type=10 8 10 8 8
left_child=1 -1 -3 -2 -4
right_child=3 2 4 -5 -6
leaf_value=0.02839880070954879 0.013377683947719252 -0.0080028734758178042 0.056010148475014142 0.061208942395626915 0.0036651584555213931
leaf_weight=123.03228058665991 9.2206763625144941 936.22213760763407 15.728243827819822 48.530156046152115 6.1571573987603214
leaf_count=1023 77 8336 125 385 54
internal_value=0 -0.00286233 -0.00687675 0.0535739 0.0412878
internal_weight=0 1081.14 958.108 57.7508 21.8854
internal_count=10000 9538 8515 462 179
is_linear=0
shrinkage=0.01


Tree=14
num_leaves=6
num_cat=0
split_feature=71 44 45 10 71
split_gain=1803.83 731.282 324.279 245.555 216.09
threshold=0.97391982258548027 41.793847891997167 1.9739552567375369 1.0587942397526227 0.17719367811458303
decision_type=8 2 10 8 10
left_child=1 3 -3 -1 -5
right_child=-2 2 -4 4 -6
leaf_value=0.017790397098808891 -0.0079849614635274721 0.037880856496762004 -0.007162214417062867 -0.0013908987773383437 0.024323255022831232
leaf_weight=147.82840906083584 1031.2601174563169 136.53307081758976 18.100574731826782 251.71200694143772 37.55161215364933
leaf_count=883 6438 791 112 1553 223
internal_value=0 0.0139183 0.0326083 0.00730593 0.00194762
internal_weight=0 591.726 154.634 437.092 289.264
internal_count=10000 3562 903 2659 1776
is_linear=0
shrinkage=0.01


Tree=15
num_leaves=6
num_cat=0
split_feature=15 15 5 5 19
split_gain=1709.96 2600.72 630.246 206.798 150.904
threshold=0.61076785172821546 0.10746616334492076 7.0215365077606675 16.632802697647751 26.728520695528811
decision_type=8 8 2 2 2
left_child=1 2 4 -3 -1
right_child=-2 3 -4 -5 -6
leaf_value=0.061033171132435823 -0.0078719363050096455 0.075392378975903188 -0.0063931596270915738 -0.00910219007341833 0.0066609067044865354
leaf_weight=19.346661098301414 716.19952839612961 71.547972664237022 149.97719182819128 3.0177495032548896 6.935021147131919
leaf_count=181 7505 640 1574 32 68
internal_value=0 0.0224674 0.00152306 0.0719724 0.0466898
internal_weight=0 250.825 176.259 74.5657 26.2817
internal_count=10000 2495 1823 672 249
is_linear=0
shrinkage=0.01


Tree=16
num_leaves=6
num_cat=0
split_feature=10 10 10 49 69
split_gain=1549.87 3363.94 89.1272 151.646 119.637
threshold=0.80084154163045951 0.54586268901596469 0.92051801008022782 68.541898355468604 831778.63435799396
decision_type=8 10 10 10 8
left_child=1 -1 3 -2 -5
right_child=2 -3 -4 4 -6
leaf_value=-0.0088133948822921998 -0.0010262946314937335 0.10742341966177907 -0.0088125490630634705 0.091816043103522704 -0.0042115212492511503
leaf_weight=66.326500449329615 71.846733387559652 39.855282634496689 444.82952267304063 3.2725405022501937 2.146776907145977
leaf_count=1072 1147 495 7208 47 31
internal_value=0 0.034819 -0.00709059 0.00282289 0.0538074
internal_weight=0 106.182 522.096 77.2661 5.41932
internal_count=10000 1567 8433 1225 78
is_linear=0
shrinkage=0.01


Tree=17
num_leaves=6
num_cat=0
split_feature=22 22 10 22 15
split_gain=5593.57 50.6275 56.0751 48.8393 45.2527
threshold=0.62388389870393246 0.62388389870393246 1.0741518523302336 0.94886008272325417 1.0211575974844604
decision_type=10 8 8 10 10
left_child=1 -1 -3 -2 -4
right_child=3 2 4 -5 -6
leaf_value=-0.0086725096916057762 0.049212241110214494 -0.0087758214731432395 -0.0062070848540576422 0.090101751359175419 0.01364715596361829
leaf_weight=662.89420156925917 3.0835830867290488 46.81842989474535 17.973008677363396 63.047765418887138 31.759983919560909
leaf_count=8166 34 576 221 627 376
internal_value=0 -0.00768714 -0.000921776 0.088199 0.00647213
internal_weight=0 759.446 96.5514 66.1313 49.733
internal_count=10000 9339 1173 661 597
is_linear=0
shrinkage=0.01


Tree=18
num_leaves=6
num_cat=0
split_feature=5 10 46 22 22
split_gain=1542.38 572.637 540.46 504.483 290.692
threshold=15.721066521034386 1.0442672286911496 28.837070423275446 0.62388389870393246 0.94886008272325417
decision_type=2 8 2 10 10
left_child=1 -1 3 -3 -2
right_child=4 2 -4 -5 -6
leaf_value=-0.0142328391903378 0.013008027067415497 0.0042110793191837623 -0.010365429876495738 -0.016383271648717657 -0.01617334733058097
leaf_weight=464.6562265753746 780.37019896507263 1072.5376569628716 508.39863529801369 133.77774512767792 35.69412887096405
leaf_count=1549 2610 3581 1695 446 119
internal_value=0 -0.00438589 -0.00171752 0.00192715 0.0117316
internal_weight=0 2179.37 1714.71 1206.32 816.064
internal_count=10000 7271 5722 4027 2729
is_linear=0
shrinkage=0.01


Tree=19
num_leaves=6
num_cat=0
split_feature=45 10 2 85 76
split_gain=1648.94 1308.65 500.376 164.308 109.845
threshold=4.8506809777360695 0.54586268901596469 2.0032682043635095 0.26241558645969693 36.220476939463758
decision_type=10 8 10 8 2
left_child=1 -1 -3 -2 -4
right_child=3 2 4 -5 -6
leaf_value=0.027414288978592195 0.025774971737152038 -0.0079849757832549124 0.05145789397764438 0.061775260252187665 -0.001452197642998183
leaf_weight=126.2002776786685 18.162493757903576 929.59141642600298 17.548258632421497 42.06113013625145 5.0530394539237014
leaf_count=1023 145 8336 136 317 43
internal_value=0 -0.0028441 -0.00685456 0.0509212 0.0396309
internal_weight=0 1078.39 952.193 60.2236 22.6013
internal_count=10000 9538 8515 462 179
is_linear=0
shrinkage=0.01


Tree=20
num_leaves=6
num_cat=0
split_feature=71 44 85 10 71
split_gain=1759.6 688.578 305.2 235.159 208.51
threshold=0.97391982258548027 41.793847891997167 0.065050661334242366 1.0587942397526227 0.17719367811458303
decision_type=8 2 10 8 10
left_child=1 3 -3 -1 -5
right_child=-2 2 -4 4 -6
leaf_value=0.01734989478119478 -0.0079568021883706722 0.0364138818880455 -0.0076713540890746479 -0.0013820688417329877 0.023689384439921052
leaf_weight=150.00166021287441 1024.3421295285225 140.82261298596859 17.672672480344772 251.50317938625813 38.206414401531219
leaf_count=883 6438 794 109 1553 223
internal_value=0 0.0136284 0.0314982 0.00718691 0.00192466
internal_weight=0 598.207 158.495 439.711 289.71
internal_count=10000 3562 903 2659 1776
is_linear=0
shrinkage=0.01


Tree=21
num_leaves=6
num_cat=0
split_feature=15 5 15 15 71
split_gain=1661.34 2356.63 633.34 163.005 103.812
threshold=0.61076785172821546 11.584716876813657 0.08332985040092282 0.25245000431329939 1.0110507439135776
decision_type=8 2 10 8 8
left_child=1 2 -1 -3 -4
right_child=-2 3 4 -5 -6
leaf_value=0.012083342503488952 -0.0078571786652951239 -0.0083651243262165727 0.013559948548566927 0.057133184636325017 0.069110807812280503
leaf_weight=27.254237443208694 711.42527674883604 132.52824781835079 3.5003619268536568 3.9068205058574668 88.185616701841354
leaf_count=269 7505 1402 32 34 758
internal_value=0 0.0218759 0.0544103 -0.00648755 0.0669909
internal_weight=0 255.375 118.94 136.435 91.686
internal_count=10000 2495 1059 1436 790
is_linear=0
shrinkage=0.01


Tree=22
num_leaves=6
num_cat=0
split_feature=10 10 10 49 69
split_gain=1478.71 2912.68 88.6974 142.16 103.739
threshold=0.80084154163045951 0.54586268901596469 0.92051801008022782 68.541898355468604 831778.63435799396
decision_type=8 10 10 10 8
left_child=1 -1 3 -2 -5
right_child=2 -3 -4 4 -6
leaf_value=-0.0088094620585413147 -0.0010154519340642861 0.096234088610083937 -0.0088079039939186372 0.084079801462916562 -0.0041740768965201694
leaf_weight=65.833576314151287 71.752989895641804 44.059866145253181 440.94730010256171 3.5432896688580504 2.1315702050924301
leaf_count=1072 1147 495 7208 47 31
internal_value=0 0.0333084 -0.00707456 0.00279667 0.0509557
internal_weight=0 109.893 518.375 77.4278 5.67486
internal_count=10000 1567 8433 1225 78
is_linear=0
shrinkage=0.01


Tree=23
num_leaves=6
num_cat=0
split_feature=22 22 10 15 22
split_gain=5096.23 50.5519 55.3775 43.9263 38.3283
threshold=0.62388389870393246 0.62388389870393246 1.0741518523302336 1.0211575974844604 0.94886008272325417
decision_type=10 8 8 10 10
left_child=1 -1 -3 -4 -2
right_child=4 2 3 -5 -6
leaf_value=-0.008663549496668645 0.046713748942479934 -0.0087682855058697912 -0.0061811115914287276 0.013386627948554781 0.082141708493060656
leaf_weight=657.38319906592369 3.2195645198225966 46.457209132611752 17.842037089169025 32.116138741374016 68.475177548825741
leaf_count=8166 34 576 221 376 627
internal_value=0 -0.0076718 -0.000909711 0.0063983 0.0805541
internal_weight=0 753.799 96.4154 49.9582 71.6947
internal_count=10000 9339 1173 597 661
is_linear=0
shrinkage=0.01


Tree=24
num_leaves=6
num_cat=0
split_feature=5 10 46 22 22
split_gain=1506.55 557.024 528.379 491.181 283.441
threshold=15.721066521034386 1.0442672286911496 28.837070423275446 0.62388389870393246 0.94886008272325417
decision_type=2 8 2 10 10
left_child=1 -1 3 -3 -2
right_child=4 2 -4 -5 -6
leaf_value=-0.014045971621715978 0.012865757048258075 0.0041580976443435598 -0.010251028752706231 -0.016168077845068119 -0.015957408561652058
leaf_weight=464.50780093669891 779.41228759288788 1072.1604759693146 508.37584719061852 133.70760744810104 35.67534276843071
leaf_count=1549 2610 3581 1695 446 119
internal_value=0 -0.00433259 -0.00170053 0.00190426 0.0116041
internal_weight=0 2178.75 1714.24 1205.87 815.088
internal_count=10000 7271 5722 4027 2729
is_linear=0
shrinkage=0.01


Tree=25
num_leaves=6
num_cat=0
split_feature=45 10 2 10 35
split_gain=1561.58 1263.39 482.531 149.118 105.799
threshold=4.8506809777360695 0.54586268901596469 1.587529687699776 1.0696617515421767 80.605323265732551
decision_type=10 8 10 8 2
left_child=1 -1 -3 -2 -4
right_child=3 2 4 -5 -6
leaf_value=0.026491284186433824 0.012340822042134911 -0.0080080851420131268 0.04787743654256324 0.055121023661071612 -0.00081928350867898844
leaf_weight=129.3139575496316 9.6322493329644185 921.31702277064323 19.155164584517482 52.988547652959824 5.8155217245221129
leaf_count=1023 77 8321 146 385 48
internal_value=0 -0.00282597 -0.0068324 0.0485421 0.0365384
internal_weight=0 1075.6 946.288 62.6208 24.9707
internal_count=10000 9538 8515 462 194
is_linear=0
shrinkage=0.01


Tree=26
num_leaves=6
num_cat=0
split_feature=71 44 45 10 71
split_gain=1716.84 649.472 286.501 225.434 201.323
threshold=0.97391982258548027 41.793847891997167 1.9739552567375369 1.0587942397526227 0.17719367811458303
decision_type=8 2 10 8 10
left_child=1 3 -3 -1 -5
right_child=-2 2 -4 4 -6
leaf_value=0.016930706979954628 -0.0079286286344813581 0.035156724329805614 -0.007140365394185908 -0.0013739259809797963 0.023085388503185512
leaf_weight=152.12072943150997 1017.4234021753073 144.24494495987892 18.012380808591843 251.30871874094009 38.849245309829712
leaf_count=883 6438 791 112 1553 223
internal_value=0 0.0133489 0.0304612 0.00707074 0.00190127
internal_weight=0 604.536 162.257 442.279 290.158
internal_count=10000 3562 903 2659 1776
is_linear=0
shrinkage=0.01


Tree=27
num_leaves=6
num_cat=0
split_feature=15 5 15 15 19
split_gain=1615.13 2179.37 557.912 155.096 96.908
threshold=0.61076785172821546 11.584716876813657 0.08332985040092282 0.25245000431329939 8.6077989561367971
decision_type=8 2 10 8 2
left_child=1 2 4 -3 -1
right_child=-2 3 -4 -5 -6
leaf_value=0.039733375544348734 -0.0078423470227166874 -0.0083487359235252818 0.062809045282478257 0.054189582468890884 -0.0007659662307361359
leaf_weight=8.5687752738595027 706.64843246340752 131.25380597263575 96.897331550717354 4.0841866061091414 19.004253454506397
leaf_count=80 7505 1402 790 34 189
internal_value=0 0.021316 0.0515158 -0.00645954 0.0118248
internal_weight=0 259.808 124.47 135.338 27.573
internal_count=10000 2495 1059 1436 269
is_linear=0
shrinkage=0.01


Tree=28
num_leaves=6
num_cat=0
split_feature=10 10 10 49 69
split_gain=1413.72 2554.88 88.2665 133.526 90.8792
threshold=0.80084154163045951 0.54586268901596469 0.92051801008022782 68.541898355468604 831778.63435799396
decision_type=8 10 10 10 8
left_child=1 -1 3 -2 -5
right_child=2 -3 -4 4 -6
leaf_value=-0.008805459358844768 -0.0010043979787176303 0.087191530029447947 -0.0088033117564022007 0.077522117037883323 -0.0041430596393504868
leaf_weight=65.32795674353838 71.657520182430744 48.157847940921783 437.08914436027408 3.8100836575031272 2.1190721616148949
leaf_count=1072 1147 495 7208 47 31
internal_value=0 0.031933 -0.00705855 0.0027706 0.0483562
internal_weight=0 113.486 514.676 77.5867 5.92916
internal_count=10000 1567 8433 1225 78
is_linear=0
shrinkage=0.01


Tree=29
num_leaves=6
num_cat=0
split_feature=22 22 10 15 22
split_gain=4678.94 50.4802 54.7039 42.6336 30.6921
threshold=0.62388389870393246 0.62388389870393246 1.0741518523302336 1.0211575974844604 0.94886008272325417
decision_type=10 8 8 10 10
left_child=1 -1 -3 -4 -2
right_child=4 2 3 -5 -6
leaf_value=-0.0086546303120664386 0.044449155356491278 -0.0087608105247694544 -0.0061537210983789812 0.013134425696737579 0.075498699728314883
leaf_weight=651.89952823519707 3.3533371761441222 46.098362855613232 17.705406837165356 32.468227967619896 73.76078824698925
leaf_count=8166 34 576 221 376 627
internal_value=0 -0.00765643 -0.000897105 0.00632804 0.0741515
internal_weight=0 748.172 96.272 50.1736 77.1141
internal_count=10000 9339 1173 597 661
is_linear=0
shrinkage=0.01


Tree=30
num_leaves=6
num_cat=0
split_feature=5 10 46 22 22
split_gain=1471.96 542.232 516.503 478.346 276.439
threshold=15.721066521034386 1.0442672286911496 28.837070423275446 0.62388389870393246 0.94886008272325417
decision_type=2 8 2 10 10
left_child=1 -1 3 -3 -2
right_child=4 2 -4 -5 -6
leaf_value=-0.013867405383648728 0.012727770617188647 0.0041056105140523207 -0.010137972670765511 -0.015961427995022499 -0.015749931200977962
leaf_weight=464.24010115861893 778.31976556777954 1071.7355640530586 508.28998956084251 133.59118703007698 35.644161105155945
leaf_count=1549 2610 3581 1695 446 119
internal_value=0 -0.00428089 -0.00168375 0.00188144 0.0114806
internal_weight=0 2177.86 1713.62 1205.33 813.964
internal_count=10000 7271 5722 4027 2729
is_linear=0
shrinkage=0.01


Tree=31
num_leaves=6
num_cat=0
split_feature=45 10 2 85 87
split_gain=1481.96 1220.8 466.478 135.841 100.076
threshold=4.8506809777360695 0.54586268901596469 1.587529687699776 0.26241558645969693 375556422975.66962
decision_type=10 8 10 8 2
left_child=1 -1 -3 -2 -4
right_child=3 2 4 -5 -6
leaf_value=0.02562493072276574 0.023960916176896743 -0.0079903367945284576 0.046363177491423872 0.055707968105364811 0.00024748790802818396
leaf_weight=132.37124310433865 19.102396920323372 914.69679161906242 19.473142191767696 45.865337505936623 6.2049017399549475
leaf_count=1023 145 8321 143 317 51
internal_value=0 -0.00280777 -0.00681019 0.046376 0.0352219
internal_weight=0 1072.75 940.375 64.9677 25.678
internal_count=10000 9538 8515 462 194
is_linear=0
shrinkage=0.01


Tree=32
num_leaves=6
num_cat=0
split_feature=71 44 85 10 71
split_gain=1675.6 613.614 271.253 216.203 194.497
threshold=0.97391982258548027 41.793847891997167 0.065050661334242366 1.0587942397526227 0.17719367811458303
decision_type=8 2 10 8 10
left_child=1 3 -3 -1 -5
right_child=-2 2 -4 4 -6
leaf_value=0.016528405561761821 -0.0079005209109979657 0.033893559984180789 -0.0076508696331731895 -0.0013652630658396367 0.022510671837299028
leaf_weight=154.2022792249918 1010.5234408378601 148.33538258075714 17.576837614178658 251.10052818059921 39.478576108813286
leaf_count=883 6438 794 109 1553 223
internal_value=0 0.0130802 0.0294922 0.0069579 0.00187889
internal_weight=0 610.694 165.912 444.781 290.579
internal_count=10000 3562 903 2659 1776
is_linear=0
shrinkage=0.01


Tree=33
num_leaves=6
num_cat=0
split_feature=15 5 15 15 19
split_gain=1571.26 2022.68 495.316 147.982 91.2136
threshold=0.61076785172821546 11.584716876813657 0.08332985040092282 0.25245000431329939 8.6077989561367971
decision_type=8 2 10 8 2
left_child=1 2 4 -3 -1
right_child=-2 3 -4 -5 -6
leaf_value=0.038056515844855719 -0.0078274583891641131 -0.0083323598858348093 0.059136247446861356 0.051551333213412369 -0.00077454807843455129
leaf_weight=8.8650486096739787 701.87519889324903 129.98741120845079 101.97446271777153 4.2569429874420157 19.021285854279995
leaf_count=80 7505 1402 790 34 189
internal_value=0 0.0207871 0.0489237 -0.00643157 0.0115744
internal_weight=0 264.105 129.861 134.244 27.8863
internal_count=10000 2495 1059 1436 269
is_linear=0
shrinkage=0.01


Tree=34
num_leaves=6
num_cat=0
split_feature=10 10 10 49 69
split_gain=1353.72 2265.45 87.8517 125.907 80.35
threshold=0.80084154163045951 0.54586268901596469 0.92051801008022782 68.541898355468604 831778.63435799396
decision_type=8 10 10 10 8
left_child=1 -1 3 -2 -5
right_child=2 -3 -4 4 -6
leaf_value=-0.0088015650920167509 -0.00099281215076519442 0.079729305155096519 -0.0087987620170141122 0.071981166660006646 -0.0041062027306101772
leaf_weight=64.832017630338669 71.557548567652702 52.15224090218544 433.2457176707685 4.0685089826583853 2.1043905839323997
leaf_count=1072 1147 495 7208 47 31
internal_value=0 0.0306677 -0.00704246 0.00274657 0.04606
internal_weight=0 116.984 510.976 77.7304 6.1729
internal_count=10000 1567 8433 1225 78
is_linear=0
shrinkage=0.01


Tree=35
num_leaves=6
num_cat=0
split_feature=22 22 10 15 5
split_gain=4323.44 50.4086 54.0399 41.3923 26.5757
threshold=0.62388389870393246 0.62388389870393246 1.0741518523302336 1.0211575974844604 19.759818767284369
decision_type=10 8 8 10 2
left_child=1 -1 -3 -4 -2
right_child=4 2 3 -5 -6
leaf_value=-0.0086457466346496325 0.069963140452638947 -0.0087533519701901256 -0.0061263720154488997 0.012890599990352445 0.042866908442457385
leaf_weight=646.43858060240746 78.569414891302586 45.739905990660191 17.570472359657288 32.815660111606121 3.824795924127101
leaf_count=8166 628 576 221 376 33
internal_value=0 -0.00764104 -0.000884388 0.00625912 0.068708
internal_weight=0 742.565 96.126 50.3861 82.3942
internal_count=10000 9339 1173 597 661
is_linear=0
shrinkage=0.01


Tree=36
num_leaves=6
num_cat=0
split_feature=5 10 46 22 22
split_gain=1438.01 519.778 502.674 454.763 286.631
threshold=15.562959380993691 1.0442672286911496 28.837070423275446 0.62388389870393246 0.94886008272325417
decision_type=2 8 2 10 10
left_child=1 -1 3 -3 -2
right_child=4 2 -4 -5 -6
leaf_value=-0.0136821290141017 0.012544176225377734 0.0039823780126950724 -0.010058818362340037 -0.015759751271100148 -0.015575763353669269
leaf_weight=461.75711658596992 786.35390090942383 1064.69236728549 507.5426045358181 131.03618884086609 37.996419310569763
leaf_count=1542 2641 3559 1693 438 127
internal_value=0 -0.0042717 -0.0017205 0.00181884 0.011248
internal_weight=0 2165.03 1703.27 1195.73 824.35
internal_count=10000 7232 5690 3997 2768
is_linear=0
shrinkage=0.01


Tree=37
num_leaves=6
num_cat=0
split_feature=45 10 2 10 15
split_gain=1410.02 1180.65 451.539 128.123 95.8527
threshold=4.8506809777360695 0.54586268901596469 1.587529687699776 1.0696617515421767 1.0152560175405763
decision_type=10 8 10 8 10
left_child=1 4 -3 -2 -1
right_child=3 2 -4 -5 -6
leaf_value=0.027152528137365194 0.011430115862899565 -0.0079726072521926917 0.034002548549587043 0.050197828067399856 -0.0054183393323149667
leaf_weight=125.63806369155645 10.021440565586088 908.11081571877003 26.367151446640491 57.212560161948204 9.7338443845510465
leaf_count=949 77 8321 194 385 74
internal_value=0 -0.0027897 -0.00678806 0.0444207 0.0248104
internal_weight=0 1069.85 934.478 67.234 135.372
internal_count=10000 9538 8515 462 1023
is_linear=0
shrinkage=0.01


Tree=38
num_leaves=6
num_cat=0
split_feature=71 44 45 10 71
split_gain=1635.82 580.661 255.337 207.535 188.017
threshold=0.97391982258548027 41.793847891997167 1.9739552567375369 1.0587942397526227 0.17719367811458303
decision_type=8 2 10 8 10
left_child=1 3 -3 -1 -5
right_child=-2 2 -4 4 -6
leaf_value=0.016145069148686048 -0.0078724827299928388 0.032805026305004883 -0.0071170711924535912 -0.0013567591286099787 0.021962986465399129
leaf_weight=156.23023375868797 1003.6457892656326 151.54883489012718 17.912896618247032 250.89442682266235 40.094793483614922
leaf_count=883 6438 791 112 1553 223
internal_value=0 0.0128216 0.028585 0.00684831 0.00185674
internal_weight=0 616.681 169.462 447.219 290.989
internal_count=10000 3562 903 2659 1776
is_linear=0
shrinkage=0.01


Tree=39
num_leaves=6
num_cat=0
split_feature=15 5 15 15 19
split_gain=1529.52 1883.34 442.806 141.524 86.0246
threshold=0.61076785172821546 11.584716876813657 0.08332985040092282 0.28175302788302692 8.6077989561367971
decision_type=8 2 10 10 2
left_child=1 2 4 -3 -1
right_child=-2 3 -4 -5 -6
leaf_value=0.036511135580005717 -0.0078125012096683221 -0.0083160067808879228 0.055884835306710796 0.049164901791080309 -0.00078300985338515148
leaf_weight=9.1561703160405177 697.10400612652302 128.73034228384495 106.91915426403284 4.4258178770542136 19.038074880838394
leaf_count=80 7505 1402 790 34 189
internal_value=0 0.0202863 0.0465889 -0.00640369 0.0113327
internal_weight=0 268.27 135.113 133.156 28.1942
internal_count=10000 2495 1059 1436 269
is_linear=0
shrinkage=0.01


Tree=40
num_leaves=6
num_cat=0
split_feature=10 10 10 49 15
split_gain=1298.46 2026.76 87.4301 120.69 87.1346
threshold=0.80084154163045951 0.54586268901596469 0.92051801008022782 44.352484040574296 1.048199376420218
decision_type=8 10 10 10 10
left_child=1 -1 3 -2 -5
right_child=2 -3 -4 4 -6
leaf_value=-0.0087975868330297993 -0.002705210297697277 0.073462283183831578 -0.008794264148113044 -0.00089544369875107653 0.053048240445219712
leaf_weight=64.322183512151241 65.44105189666152 56.047128662467003 429.4258747510612 5.0208342224359495 7.4135171957314014
leaf_count=1072 1051 495 7208 76 98
internal_value=0 0.0295062 -0.0070264 0.00272204 0.0312749
internal_weight=0 120.369 507.301 77.8754 12.4344
internal_count=10000 1567 8433 1225 174
is_linear=0
shrinkage=0.01


Tree=41
num_leaves=6
num_cat=0
split_feature=22 22 10 15 66
split_gain=4016.81 50.3337 53.3779 40.1935 23.9048
threshold=0.62388389870393246 0.62388389870393246 1.0741518523302336 1.0211575974844604 38091648736526.18
decision_type=10 8 8 10 2
left_child=1 -1 -3 -4 -2
right_child=4 2 3 -5 -6
leaf_value=-0.0086368897254257074 0.065242359042291712 -0.0087459114347226748 -0.0060992617335261139 0.012652483838650638 0.041513435501387232
leaf_weight=640.99808263778687 83.028040394186974 45.381984278559685 17.438145242631435 33.161832757294178 4.5097089111804953
leaf_count=8166 624 576 221 376 37
internal_value=0 -0.00762562 -0.000871973 0.00619015 0.0640223
internal_weight=0 736.98 95.982 50.6 87.5377
internal_count=10000 9339 1173 597 661
is_linear=0
shrinkage=0.01


Tree=42
num_leaves=6
num_cat=0
split_feature=5 10 46 22 22
split_gain=1405.45 514.229 493.73 441.461 263.263
threshold=15.721066521034386 1.0442672286911496 25.544001593801166 0.62388389870393246 0.94886008272325417
decision_type=2 8 2 10 10
left_child=1 -1 3 -3 -2
right_child=4 2 -4 -5 -6
leaf_value=-0.013526176483590628 0.012461028338014261 0.0045214879494708 -0.0089557173826371461 -0.015562547014567305 -0.015367148468815163
leaf_weight=463.36196556687355 775.7323052585125 988.17683261632919 600.66325172781944 123.06938225030899 35.54943111538887
leaf_count=1549 2610 3305 2005 412 119
internal_value=0 -0.00418075 -0.0016512 0.00229714 0.0112415
internal_weight=0 2175.27 1711.91 1111.25 811.282
internal_count=10000 7271 5722 3717 2729
is_linear=0
shrinkage=0.01


Tree=43
num_leaves=6
num_cat=0
split_feature=45 10 2 10 14
split_gain=1343.61 1142.79 437.505 117.063 91.036
threshold=4.8506809777360695 0.54586268901596469 1.587529687699776 1.0696617515421767 55.39166364529104
decision_type=10 8 10 8 2
left_child=1 -1 -3 -2 -4
right_child=3 2 4 -5 -6
leaf_value=0.024044716653696754 0.011190433263398667 -0.007954824579374074 0.042378643826737276 0.047980854350780533 -0.00248756126773281
leaf_weight=138.31045658886433 10.12851747125387 901.53375413268805 21.308074861764911 59.332001507282257 5.7398732453584662
leaf_count=1023 77 8321 148 385 46
internal_value=0 -0.00277149 -0.00676582 0.0426174 0.0328588
internal_weight=0 1066.89 928.582 69.4605 27.0479
internal_count=10000 9538 8515 462 194
is_linear=0
shrinkage=0.01


Tree=44
num_leaves=6
num_cat=0
split_feature=71 44 85 10 71
split_gain=1597.33 550.188 243.007 199.444 182.092
threshold=0.97391982258548027 41.793847891997167 0.065050661334242366 1.0587942397526227 0.15782473568358518
decision_type=8 2 10 8 10
left_child=1 3 -3 -1 -5
right_child=-2 2 -4 4 -6
leaf_value=0.015781121222096496 -0.0078444525535422902 0.031705133863702301 -0.0076288710213050209 -0.0015553843308713166 0.020268853561398247
leaf_weight=158.19667448103428 996.77700129151344 155.4474091231823 17.470043078064919 246.14395007491112 45.25540991127491
leaf_count=883 6438 794 109 1525 251
internal_value=0 0.0125722 0.0277311 0.0067418 0.00183429
internal_weight=0 622.513 172.917 449.596 291.399
internal_count=10000 3562 903 2659 1776
is_linear=0
shrinkage=0.01


Tree=45
num_leaves=6
num_cat=0
split_feature=15 5 15 15 19
split_gain=1489.71 1758.65 398.28 135.634 81.2779
threshold=0.61076785172821546 11.584716876813657 0.08332985040092282 0.25245000431329939 8.6077989561367971
decision_type=8 2 10 8 2
left_child=1 2 4 -3 -1
right_child=-2 3 -4 -5 -6
leaf_value=0.035081834333725269 -0.0077974742233590947 -0.0082996588830059892 0.052983162535546448 0.046997100909326968 -0.00079118826118327712
leaf_weight=9.4423036426305789 692.33554018288851 127.48129328340292 111.73895472288132 4.5907621383666983 19.054294243454933
leaf_count=80 7505 1402 790 34 189
internal_value=0 0.019811 0.0444729 -0.00637586 0.0110994
internal_weight=0 272.308 140.236 132.072 28.4966
internal_count=10000 2495 1059 1436 269
is_linear=0
shrinkage=0.01


Tree=46
num_leaves=6
num_cat=0
split_feature=10 10 10 49 15
split_gain=1247.1 1827.3 87.023 115.496 79.5828
threshold=0.80084154163045951 0.54586268901596469 0.92051801008022782 44.352484040574296 1.048199376420218
decision_type=8 10 10 10 10
left_child=1 -1 3 -2 -5
right_child=2 -3 -4 4 -6
leaf_value=-0.0087936798694487131 -0.0026850402536622814 0.068124359085348474 -0.0087898111021392916 -0.00087740640629771027 0.05024107282460985
leaf_weight=63.81818437948823 65.24206106364727 59.843791462481022 425.62457263097167 5.0102764070034009 7.7607184574007988
leaf_count=1072 1051 495 7208 76 98
internal_value=0 0.0284305 -0.0070102 0.00269895 0.0301939
internal_weight=0 123.662 503.638 78.0131 12.771
internal_count=10000 1567 8433 1225 174
is_linear=0
shrinkage=0.01


Tree=47
num_leaves=6
num_cat=0
split_feature=22 22 10 71 22
split_gain=3749.44 50.2638 52.7349 39.6595 20.1625
threshold=0.62388389870393246 0.62388389870393246 1.0741518523302336 0.9993791424883034 0.94886008272325417
decision_type=10 8 8 8 10
left_child=1 -1 -3 -4 -2
right_child=4 2 3 -5 -6
leaf_value=-0.0086280723496798446 0.037440259940271385 -0.0087384749446701489 -0.0090344704135622185 0.011272709548855312 0.060919321722861852
leaf_weight=635.58703885227442 3.8452475517988196 45.02414907515049 12.879636600613592 37.925630912184715 88.701350077986717
leaf_count=8166 34 576 150 447 627
internal_value=0 -0.00761017 -0.000858887 0.00612426 0.0599459
internal_weight=0 731.416 95.8294 50.8053 92.5466
internal_count=10000 9339 1173 597 661
is_linear=0
shrinkage=0.01


Tree=48
num_leaves=6
num_cat=0
split_feature=5 10 46 22 22
split_gain=1373.67 493.211 481.399 432.1 272.895
threshold=15.562959380993691 1.0442672286911496 28.837070423275446 0.62388389870393246 0.94886008272325417
decision_type=2 8 2 10 10
left_child=1 -1 3 -3 -2
right_child=4 2 -4 -5 -6
leaf_value=-0.013352103572120034 0.012285344764837258 0.003886004710910218 -0.0098511718449515902 -0.01538743724514126 -0.01519862023144615
leaf_weight=460.66785189509392 783.4944235086441 1063.6524659991264 507.08437964320183 130.60135373473167 37.869704008102417
leaf_count=1542 2641 3559 1693 438 127
internal_value=0 -0.00417329 -0.00168793 0.00177824 0.0110181
internal_weight=0 2162.01 1701.34 1194.25 821.364
internal_count=10000 7232 5690 3997 2768
is_linear=0
shrinkage=0.01


Tree=49
num_leaves=6
num_cat=0
split_feature=45 10 2 85 39
split_gain=1282.9 1122.74 397.49 154.755 92.7058
threshold=3.3976445342762491 0.54586268901596469 2.0032682043635095 0.26241558645969693 1547020700.1120741
decision_type=10 8 10 8 2
left_child=1 -1 -3 -2 -4
right_child=3 2 4 -5 -6
leaf_value=0.02349666805117695 0.018346464245776534 -0.0079911253230152829 0.044776340605500495 0.048105802148561978 -0.0071480196599343505
leaf_weight=139.54407624900341 25.739829860627651 893.54914736747742 17.953990876674656 54.470020458102226 4.2511365041136733
leaf_count=1011 188 8306 119 343 33
internal_value=0 -0.00292603 -0.00695247 0.0385576 0.0348361
internal_weight=0 1055.3 915.754 80.2099 22.2051
internal_count=10000 9469 8458 531 152
is_linear=0
shrinkage=0.01


Tree=50
num_leaves=6
num_cat=0
split_feature=71 44 85 10 46
split_gain=1559.9 526.384 264.561 219.394 204.651
threshold=0.97391982258548027 34.074398856559604 0.065050661334242366 1.0587942397526227 25.544001593801166
decision_type=8 2 10 10 2
left_child=1 3 4 -1 -3
right_child=-2 2 -4 -5 -6
leaf_value=0.013494342467308016 -0.0078163082162241004 0.013895699843172002 -0.006736687150828413 -0.0016335812678280703 0.034511446278858146
leaf_weight=173.26003739237785 989.89240765571594 72.748287513852119 25.141440346837044 214.60497036576271 142.47426316142082
leaf_count=981 6438 397 157 1307 720
internal_value=0 0.0123302 0.0239578 0.00512418 0.0275435
internal_weight=0 628.229 240.364 387.865 215.223
internal_count=10000 3562 1274 2288 1117
is_linear=0
shrinkage=0.01


Tree=51
num_leaves=6
num_cat=0
split_feature=15 5 15 19 15
split_gain=1451.88 1646.95 362.585 158.234 130.236
threshold=0.61076785172821546 11.584716876813657 0.097205187330208359 22.145159621979925 0.25245000431329939
decision_type=8 2 10 2 8
left_child=1 2 3 -1 -3
right_child=-2 4 -4 -5 -6
leaf_value=0.035563884256926949 -0.0077824251046855137 -0.0082833140401675793 0.053158760663272367 -0.0021845599801179412 0.045017730361296741
leaf_weight=25.309564091265202 687.5880568921566 126.24059863388538 100.11672877520323 19.781467229127884 4.7519627064466468
leaf_count=204 7505 1402 669 186 34
internal_value=0 0.0193618 0.0425542 0.0190052 -0.00634809
internal_weight=0 276.2 145.208 45.091 130.993
internal_count=10000 2495 1059 390 1436
is_linear=0
shrinkage=0.01


Tree=52
num_leaves=6
num_cat=0
split_feature=10 10 10 49 71
split_gain=1199.2 1658.29 86.6094 110.576 72.9884
threshold=0.80084154163045951 0.54586268901596469 0.92051801008022782 44.352484040574296 1.0168261077088643
decision_type=8 10 10 10 10
left_child=1 -1 3 -2 -5
right_child=2 -3 -4 4 -6
leaf_value=-0.0087898162259879686 -0.0026648574717296168 0.063516572814732136 -0.0087853889018615853 0.0029841076501108919 0.050429128982329562
leaf_weight=63.316369883716106 65.043904006481171 63.548967108130455 421.83423193916678 5.8763302937149984 7.2308771386742592
leaf_count=1072 1051 495 7208 82 92
internal_value=0 0.0274307 -0.00699397 0.00267546 0.0291674
internal_weight=0 126.865 499.985 78.1511 13.1072
internal_count=10000 1567 8433 1225 174
is_linear=0
shrinkage=0.01


Tree=53
num_leaves=6
num_cat=0
split_feature=22 22 10 15 66
split_gain=3515.21 50.1946 52.0934 38.8814 18.2735
threshold=0.62388389870393246 0.62388389870393246 1.0741518523302336 1.0211575974844604 38091648736526.18
decision_type=10 8 8 10 2
left_child=1 -1 -3 -4 -2
right_child=4 2 3 -5 -6
leaf_value=-0.0086192976832147224 0.057380628366834843 -0.008731051687558675 -0.0060870094943909457 0.012332131701609426 0.037460749698110106
leaf_weight=630.21084573864937 92.512091606855392 44.666896775364876 17.377699106931686 33.638232126832008 4.8858165740966788
leaf_count=8166 624 576 221 376 37
internal_value=0 -0.00759468 -0.000845965 0.00605799 0.0563834
internal_weight=0 725.894 95.6828 51.0159 97.3979
internal_count=10000 9339 1173 597 661
is_linear=0
shrinkage=0.01


Tree=54
num_leaves=6
num_cat=0
split_feature=5 10 46 22 22
split_gain=1342.18 480.931 470.21 421.116 266.29
threshold=15.562959380993691 1.0442672286911496 28.837070423275446 0.62388389870393246 0.94886008272325417
decision_type=2 8 2 10 10
left_child=1 -1 3 -3 -2
right_child=4 2 -4 -5 -6
leaf_value=-0.013196039268767251 0.012157760059547908 0.0038364744986356665 -0.0097407528779670932 -0.0152090758106188 -0.015020352757600535
leaf_weight=459.98338958621025 781.8674241900444 1063.0725687146187 506.75434496998787 130.3232409954071 37.789449244737625
leaf_count=1542 2641 3559 1693 438 127
internal_value=0 -0.00412471 -0.00167039 0.00175657 0.0109047
internal_weight=0 2160.13 1700.15 1193.4 819.657
internal_count=10000 7232 5690 3997 2768
is_linear=0
shrinkage=0.01


Tree=55
num_leaves=6
num_cat=0
split_feature=45 10 2 85 39
split_gain=1229.32 1088.04 385.041 141.313 86.2007
threshold=3.3976445342762491 0.54586268901596469 2.0032682043635095 0.26241558645969693 1547020700.1120741
decision_type=10 8 10 8 2
left_child=1 -1 -3 -2 -4
right_child=3 2 4 -5 -6
leaf_value=0.022794785591442487 0.017949228818837756 -0.007973479654286705 0.042941864393564164 0.046105958173669651 -0.0071205324043324145
leaf_weight=142.40574191510677 26.087252147495747 886.95581235736609 18.553509779274467 56.333988972008228 4.2202856391668311
leaf_count=1011 188 8306 119 343 33
internal_value=0 -0.00290749 -0.00693094 0.0371957 0.0336651
internal_weight=0 1052.14 909.73 82.4212 22.7738
internal_count=10000 9469 8458 531 152
is_linear=0
shrinkage=0.01


Tree=56
num_leaves=6
num_cat=0
split_feature=71 44 45 10 46
split_gain=1523.74 501.643 252.544 212.539 198.835
threshold=0.97391982258548027 34.074398856559604 2.5564339918510073 1.0587942397526227 25.544001593801166
decision_type=8 2 10 10 2
left_child=1 3 4 -1 -3
right_child=-2 2 -4 -5 -6
leaf_value=0.013226004994500802 -0.0077882820503053472 0.013347329215058313 -0.0085530884867691184 -0.0016251145179894753 0.033349328448293081
leaf_weight=175.01861913502216 983.04661084711552 75.197782665491104 22.552212774753571 214.42122769355774 146.61724777519703
leaf_count=981 6438 407 143 1307 724
internal_value=0 0.0120966 0.0233274 0.00504923 0.0265689
internal_weight=0 633.807 244.367 389.44 221.815
internal_count=10000 3562 1274 2288 1131
is_linear=0
shrinkage=0.01


Tree=57
num_leaves=6
num_cat=0
split_feature=15 5 15 15 19
split_gain=1415.58 1545.84 331.691 125.321 73.1801
threshold=0.61076785172821546 11.584716876813657 0.08332985040092282 0.25245000431329939 8.6077989561367971
decision_type=8 2 10 8 2
left_child=1 2 4 -3 -1
right_child=-2 3 -4 -5 -6
leaf_value=0.032472189285668258 -0.0077672437252730032 -0.0082670107375707041 0.048106119544676432 0.043223159382271011 -0.00086801537441650808
leaf_weight=10.011457800865175 682.82948522269726 125.01107101887465 120.84369689971209 4.9077035039663306 19.208134271204472
leaf_count=80 7505 1402 790 34 189
internal_value=0 0.0189329 0.0407957 -0.00632037 0.0105589
internal_weight=0 279.982 150.063 129.919 29.2196
internal_count=10000 2495 1059 1436 269
is_linear=0
shrinkage=0.01


Tree=58
num_leaves=6
num_cat=0
split_feature=10 10 10 49 15
split_gain=1154.35 1513.8 86.2524 106.022 70.1356
threshold=0.80084154163045951 0.54586268901596469 0.92051801008022782 44.352484040574296 1.048199376420218
decision_type=8 10 10 10 10
left_child=1 -1 3 -2 -5
right_child=2 -3 -4 4 -6
leaf_value=-0.0087860416043347711 -0.002641612026685153 0.059502686891766257 -0.0087810300952449651 -0.0010185153415132148 0.046070220975223432
leaf_weight=62.824297193437815 64.817183122038841 67.159494392573833 418.0818498134613 5.0935567095875731 8.3395816534757596
leaf_count=1072 1051 495 7208 76 98
internal_value=0 0.026498 -0.00697756 0.00265808 0.0282215
internal_weight=0 129.984 496.332 78.2503 13.4331
internal_count=10000 1567 8433 1225 174
is_linear=0
shrinkage=0.01


Tree=59
num_leaves=6
num_cat=0
split_feature=22 22 10 71 37
split_gain=3306.6 50.1269 51.4639 38.66 16.3595
threshold=0.62388389870393246 0.62388389870393246 1.0741518523302336 0.9993791424883034 775147.79878934042
decision_type=10 8 8 8 10
left_child=1 -1 -3 -4 -2
right_child=4 2 3 -5 -6
leaf_value=-0.0086105298460287857 0.054098954657287632 -0.0087235644121935792 -0.0090325553058092749 0.01101628824833344 0.034926092226445625
leaf_weight=624.85113980621099 97.434507220983505 44.306873880326748 12.828478604555128 38.388526253402233 4.7006796076893798
leaf_count=8166 628 576 150 447 33
internal_value=0 -0.00757915 -0.000832444 0.0059942 0.0532183
internal_weight=0 720.375 95.5239 51.217 102.135
internal_count=10000 9339 1173 597 661
is_linear=0
shrinkage=0.01


Tree=60
num_leaves=6
num_cat=0
split_feature=5 10 46 22 22
split_gain=1311.75 477.013 468.831 379.271 244.665
threshold=15.721066521034386 0.71635089224437531 20.417210864799053 0.62388389870393246 0.94886008272325417
decision_type=2 8 2 10 10
left_child=1 -1 3 -3 -2
right_child=4 2 -4 -5 -6
leaf_value=-0.013868799301205968 0.012080332299117988 0.0049937086311585598 -0.0075387664228072152 -0.015015896867370811 -0.014832029084292007
leaf_weight=402.05997052788734 770.90035313367844 872.63213470578194 788.69019466638565 106.25673085451126 35.324692755937576
leaf_count=1350 2610 2924 2639 358 119
internal_value=0 -0.00403747 -0.00180116 0.00282163 0.0109011
internal_weight=0 2169.64 1767.58 978.889 806.225
internal_count=10000 7271 5921 3282 2729
is_linear=0
shrinkage=0.01


Tree=61
num_leaves=6
num_cat=0
split_feature=45 10 2 85 48
split_gain=1178.77 1055.09 373.549 130.383 74.8359
threshold=3.3976445342762491 0.54586268901596469 2.0032682043635095 0.26241558645969693 2422076064.9288545
decision_type=10 8 10 10 8
left_child=1 -1 -3 -2 -4
right_child=3 2 4 -5 -6
leaf_value=0.022130118625938288 0.022135342128162847 -0.0079557460962039316 0.041993665513114377 0.047101176916794718 -0.00153086474980631
leaf_weight=145.21691146492958 37.928696051239967 880.36101451516151 18.280192747712135 46.681921429932117 5.0386285707354572
leaf_count=1011 259 8306 112 272 40
internal_value=0 -0.00288878 -0.0069093 0.0359116 0.0325908
internal_weight=0 1048.9 903.68 84.6106 23.3188
internal_count=10000 9469 8458 531 152
is_linear=0
shrinkage=0.01


Tree=62
num_leaves=6
num_cat=0
split_feature=71 44 85 10 46
split_gain=1488.61 478.575 240.289 205.99 175.716
threshold=0.97391982258548027 34.074398856559604 0.065050661334242366 1.0587942397526227 25.544001593801166
decision_type=8 2 10 10 2
left_child=1 3 4 -1 -3
right_child=-2 2 -4 -5 -6
leaf_value=0.012966840432512452 -0.0077602064626277091 0.013418946721017256 -0.0067012795376798651 -0.0016170674983287815 0.032263920725664433
leaf_weight=176.74370320141315 976.2010103315115 74.024462953209877 24.952540248632431 214.24470525979996 149.28062357008457
leaf_count=981 6438 397 157 1307 720
internal_value=0 0.0118703 0.0227287 0.00497557 0.0260174
internal_weight=0 639.246 248.258 390.988 223.305
internal_count=10000 3562 1274 2288 1117
is_linear=0
shrinkage=0.01


Tree=63
num_leaves=6
num_cat=0
split_feature=15 5 15 15 19
split_gain=1380.96 1454.35 302.989 120.783 69.4993
threshold=0.61076785172821546 11.584716876813657 0.08332985040092282 0.28175302788302692 8.6077989561367971
decision_type=8 2 10 10 2
left_child=1 2 4 -3 -1
right_child=-2 3 -4 -5 -6
leaf_value=0.031331292320139301 -0.0077520246182095553 -0.0082506919064302582 0.045975235783001576 0.041573598970421351 -0.0008744909078156174
leaf_weight=10.281334497034551 678.08742731809616 123.78851398080587 125.27932837605476 5.0596060901880255 19.22102277725935
leaf_count=80 7505 1402 790 34 189
internal_value=0 0.018526 0.0391858 -0.00629266 0.0103524
internal_weight=0 283.63 154.782 128.848 29.5024
internal_count=10000 2495 1059 1436 269
is_linear=0
shrinkage=0.01


Tree=64
num_leaves=6
num_cat=0
split_feature=10 10 10 49 5
split_gain=1112.38 1389.09 85.9053 101.79 67.2325
threshold=0.80084154163045951 0.54586268901596469 0.92051801008022782 44.352484040574296 11.720745378947246
decision_type=8 10 10 10 2
left_child=1 -1 3 -2 -5
right_child=2 -3 -4 4 -6
leaf_value=-0.0087823020038101576 -0.0026178508565298901 0.055976409310486412 -0.0087767176020701384 0.042717323343551467 -0.0044464533600645229
leaf_weight=62.334353782236576 64.58677002415061 70.674628302454948 414.35209555923939 9.2661652863025648 4.4831298105418673
leaf_count=1072 1051 495 7208 111 63
internal_value=0 0.0256282 -0.00696114 0.00264218 0.027343
internal_weight=0 133.009 492.688 78.3361 13.7493
internal_count=10000 1567 8433 1225 174
is_linear=0
shrinkage=0.01


Tree=65
num_leaves=6
num_cat=0
split_feature=22 22 10 71 5
split_gain=3120.19 50.0622 50.8414 37.7953 15.1727
threshold=0.62388389870393246 0.62388389870393246 1.0741518523302336 0.9993791424883034 19.656671415888933
decision_type=10 8 8 8 2
left_child=1 -1 -3 -4 -2
right_child=4 2 3 -5 -6
leaf_value=-0.0086017869654453367 0.051225025357894576 -0.0087160863316180434 -0.0090254870231774708 0.010844386277973321 0.033132069714540052
leaf_weight=619.51591799408197 101.84846124053001 43.947380878031254 12.713857188820837 38.706230074167252 4.8934948444366446
leaf_count=8166 627 576 150 447 34
internal_value=0 -0.00756352 -0.000818759 0.00593107 0.0503972
internal_weight=0 714.883 95.3675 51.4201 106.742
internal_count=10000 9339 1173 597 661
is_linear=0
shrinkage=0.01


Tree=66
num_leaves=6
num_cat=0
split_feature=5 10 46 22 22
split_gain=1281.79 458.594 455.281 359.457 253.824
threshold=15.562959380993691 0.71635089224437531 20.417210864799053 0.62388389870393246 0.94886008272325417
decision_type=2 8 2 10 10
left_child=1 -1 3 -3 -2
right_child=4 2 -4 -5 -6
leaf_value=-0.013705606168069711 0.011911833585902285 0.0048626313789782829 -0.0074807052005720258 -0.014846957246811718 -0.014688541344494918
leaf_weight=399.18126681447029 778.25499266386032 865.78058880567551 787.30553179979324 103.60006037354469 37.601353108882904
leaf_count=1343 2641 2903 2636 350 127
internal_value=0 -0.00403036 -0.00183177 0.00275615 0.0106858
internal_weight=0 2155.87 1756.69 969.381 815.856
internal_count=10000 7232 5889 3253 2768
is_linear=0
shrinkage=0.01


Tree=67
num_leaves=6
num_cat=0
split_feature=45 10 2 85 15
split_gain=1131.99 1023.27 363.319 120.799 70.3998
threshold=3.3976445342762491 0.54586268901596469 2.0032682043635095 0.26241558645969693 1.0152560175405763
decision_type=10 8 10 8 10
left_child=1 4 -3 -2 -1
right_child=3 2 -4 -5 -6
leaf_value=0.023264279966423673 0.017099822689371484 -0.0079379684094870381 0.031642211371361702 0.042628904738045245 -0.0053072070567277375
leaf_weight=138.82993265986443 26.859319396317005 873.79680141061544 23.819151595234871 59.871750377118587 9.1933205425739271
leaf_count=946 188 8306 152 343 65
internal_value=0 -0.00287027 -0.0068875 0.0347244 0.0214897
internal_weight=0 1045.64 897.616 86.7311 148.023
internal_count=10000 9469 8458 531 1011
is_linear=0
shrinkage=0.01


Tree=68
num_leaves=6
num_cat=0
split_feature=71 44 45 10 46
split_gain=1454.52 457.576 230.655 199.706 172.36
threshold=0.97391982258548027 34.074398856559604 2.5564339918510073 1.0587942397526227 25.544001593801166
decision_type=8 2 10 10 2
left_child=1 3 4 -1 -3
right_child=-2 2 -4 -5 -6
leaf_value=0.012712835352896482 -0.0077320591588622145 0.012889154512896834 -0.0085214303429425407 -0.0016110439311060696 0.031271580472933283
leaf_weight=178.46067570149899 969.36878962814808 76.486142173409462 22.318942055106163 214.10897701978683 153.17954349517822
leaf_count=981 6438 407 143 1307 724
internal_value=0 0.0116511 0.0221676 0.00490062 0.02515
internal_weight=0 644.554 251.985 392.57 229.666
internal_count=10000 3562 1274 2288 1131
is_linear=0
shrinkage=0.01


Tree=69
num_leaves=6
num_cat=0
split_feature=15 5 15 19 15
split_gain=1347.79 1371.34 280.752 137.132 116.461
threshold=0.61076785172821546 11.584716876813657 0.097205187330208359 22.145159621979925 0.28175302788302692
decision_type=8 2 10 2 10
left_child=1 2 3 -1 -3
right_child=-2 4 -4 -5 -6
leaf_value=0.031944023308375313 -0.0077367413646225163 -0.0082344908222282322 0.046374342009018826 -0.0023789276391345503 0.040007368946559589
leaf_weight=27.427397795021534 673.36135172843933 122.58321495354176 111.71898019313812 20.219535678625107 5.212218075990676
leaf_count=204 7505 1402 669 186 34
internal_value=0 0.0181379 0.0377065 0.01738 -0.00626543
internal_weight=0 287.161 159.366 47.6469 127.795
internal_count=10000 2495 1059 390 1436
is_linear=0
shrinkage=0.01


Tree=70
num_leaves=6
num_cat=0
split_feature=10 10 10 49 15
split_gain=1072.82 1280.79 85.5546 97.7148 62.2385
threshold=0.80084154163045951 0.54586268901596469 0.92051801008022782 44.352484040574296 1.048199376420218
decision_type=8 10 10 10 10
left_child=1 -1 3 -2 -5
right_child=2 -3 -4 4 -6
leaf_value=-0.0087787447713499819 -0.0025936627828669506 0.052855208591718883 -0.0087724183573834567 -0.0011327126413885509 0.042500974516114794
leaf_weight=61.864101905375719 64.35392826423049 74.0940061211586 410.63031017035246 5.1626121774315825 8.9062118828296644
leaf_count=1072 1051 495 7208 76 98
internal_value=0 0.024811 -0.00694459 0.00262607 0.0264947
internal_weight=0 135.958 489.053 78.4228 14.0688
internal_count=10000 1567 8433 1225 174
is_linear=0
shrinkage=0.01


Tree=71
num_leaves=6
num_cat=0
split_feature=22 22 10 15 66
split_gain=2954.48 49.9964 50.217 37.4647 13.5663
threshold=0.62388389870393246 0.62388389870393246 1.0741518523302336 1.0211575974844604 38091648736526.18
decision_type=10 8 8 10 2
left_child=1 -1 -3 -4 -2
right_child=4 2 3 -5 -6
leaf_value=-0.0085931088681302226 0.048690519824013664 -0.0087085511459183227 -0.0060885726179920928 0.01193604644314864 0.032439481881294099
leaf_weight=614.24195393919945 105.72223725169897 43.586255930364132 17.381297931075096 34.24434469640255 5.4421944767236701
leaf_count=8166 624 576 221 376 37
internal_value=0 -0.00754796 -0.000805242 0.00586752 0.0478964
internal_weight=0 709.454 95.2119 51.6256 111.164
internal_count=10000 9339 1173 597 661
is_linear=0
shrinkage=0.01


Tree=72
num_leaves=6
num_cat=0
split_feature=5 10 46 22 22
split_gain=1252.88 455.314 444.757 401.854 233.261
threshold=15.721066521034386 1.0442672286911496 28.837070423275446 0.62388389870393246 0.94886008272325417
decision_type=2 8 2 10 10
left_child=1 -1 3 -3 -2
right_child=4 2 -4 -5 -6
leaf_value=-0.012780335154589897 0.011838742223314047 0.0037848288568525031 -0.0094262809514848375 -0.014730101270126425 -0.014511242330106073
leaf_weight=459.51838660240173 767.08241084218025 1067.7304827868938 506.12171465158463 131.67870080471039 35.130099654197693
leaf_count=1549 2610 3581 1695 446 119
internal_value=0 -0.00394552 -0.00156514 0.00175209 0.0106848
internal_weight=0 2165.05 1705.53 1199.41 802.213
internal_count=10000 7271 5722 4027 2729
is_linear=0
shrinkage=0.01


Tree=73
num_leaves=6
num_cat=0
split_feature=45 10 2 85 48
split_gain=1087.84 993.071 353.653 111.357 68.3618
threshold=3.3976445342762491 0.54586268901596469 2.0032682043635095 0.26241558645969693 2422076064.9288545
decision_type=10 8 10 8 8
left_child=1 -1 -3 -2 -4
right_child=3 2 4 -5 -6
leaf_value=0.020884130396349777 0.01674492627269563 -0.0079201431384511127 0.039408799195918255 0.041043153438257915 -0.001694386859324333
leaf_weight=150.76719860732555 27.193879276514053 867.24792517721653 19.188909918069839 61.62447676807642 5.1267203167080906
leaf_count=1011 188 8306 112 343 40
internal_value=0 -0.00285158 -0.00686549 0.033605 0.030744
internal_weight=0 1042.33 891.564 88.8184 24.3156
internal_count=10000 9469 8458 531 152
is_linear=0
shrinkage=0.01


Tree=74
num_leaves=6
num_cat=0
split_feature=71 44 45 10 71
split_gain=1421.67 438.005 219.728 193.757 165.287
threshold=0.97391982258548027 34.074398856559604 2.5564339918510073 1.0587942397526227 0.99059668065637252
decision_type=8 2 10 10 10
left_child=1 3 -3 -1 -2
right_child=4 2 -4 -5 -6
leaf_value=0.012470273349679888 0.00072497168664024383 0.024490020852229774 -0.0084895157046781782 -0.0016051097352445145 -0.009741180336662679
leaf_weight=180.12433312833309 187.35759389400482 233.46597708761692 22.113285571336746 213.97394885122776 775.2271216660738
leaf_count=981 1237 1131 143 1307 5201
internal_value=0 0.0114406 0.0216364 0.00482818 -0.00770405
internal_weight=0 649.678 255.579 394.098 962.585
internal_count=10000 3562 1274 2288 6438
is_linear=0
shrinkage=0.01


Tree=75
num_leaves=6
num_cat=0
split_feature=15 5 15 15 71
split_gain=1315.8 1295.25 259.149 112.447 63.1607
threshold=0.61076785172821546 11.584716876813657 0.08332985040092282 0.25245000431329939 1.0110507439135776
decision_type=8 2 10 8 8
left_child=1 2 -1 -3 -4
right_child=-2 3 4 -5 -6
leaf_value=0.0098679855535311663 -0.007721356173924469 -0.0082182919042215283 0.0067867778288524397 0.038559771057499033 0.043641138024602157
leaf_weight=30.185637481510639 668.63264808803797 121.38639567792416 4.82639180123806 5.3610945940017691 128.83244101703167
leaf_count=269 7505 1402 32 34 758
internal_value=0 0.0177655 0.0363341 -0.00623826 0.0423106
internal_weight=0 290.592 163.844 126.747 133.659
internal_count=10000 2495 1059 1436 790
is_linear=0
shrinkage=0.01


Tree=76
num_leaves=6
num_cat=0
split_feature=10 10 10 49 5
split_gain=1035.7 1185.8 85.2031 93.9189 59.8801
threshold=0.80084154163045951 0.54586268901596469 0.92051801008022782 44.352484040574296 11.720745378947246
decision_type=8 10 10 10 2
left_child=1 -1 3 -2 -5
right_child=2 -3 -4 4 -6
leaf_value=-0.0087751785800674869 -0.0025697529335756068 0.050072531397275875 -0.0087681663163166734 0.039493760092224384 -0.0044798031564552334
leaf_weight=61.390729237347841 64.125138692557812 77.419445633888245 406.93086249008775 9.8687738776206952 4.5103213004767886
leaf_count=1072 1051 495 7208 111 63
internal_value=0 0.0240469 -0.00692805 0.00261022 0.0257037
internal_weight=0 138.81 485.435 78.5042 14.3791
internal_count=10000 1567 8433 1225 174
is_linear=0
shrinkage=0.01


Tree=77
num_leaves=6
num_cat=0
split_feature=22 22 10 71 37
split_gain=2804.55 49.9303 49.6026 36.7853 12.709
threshold=0.62388389870393246 0.62388389870393246 1.0741518523302336 0.9993791424883034 775147.79878934042
decision_type=10 8 8 8 10
left_child=1 -1 -3 -4 -2
right_child=4 2 3 -5 -6
leaf_value=-0.0085844623976487483 0.046362810071765834 -0.0087009968245412069 -0.0090225088271494516 0.010591618014528134 0.030323211090408982
leaf_weight=608.99670585989952 110.24609177559614 43.224351979792118 12.643799170851706 39.179955147206783 5.2110607996582976
leaf_count=8166 628 576 150 447 33
internal_value=0 -0.0075324 -0.000791455 0.00580582 0.0456402
internal_weight=0 704.045 95.0481 51.8238 115.457
internal_count=10000 9339 1173 597 661
is_linear=0
shrinkage=0.01


Tree=78
num_leaves=6
num_cat=0
split_feature=5 10 46 22 22
split_gain=1224.65 437.747 437.641 342.624 241.993
threshold=15.562959380993691 0.71635089224437531 20.417210864799053 0.62388389870393246 0.94886008272325417
decision_type=2 8 2 10 10
left_child=1 -1 3 -3 -2
right_child=4 2 -4 -5 -6
leaf_value=-0.013416120017124434 0.011676739132160887 0.0047648224196270737 -0.007334724204983053 -0.014532640283760735 -0.014375050893932713
leaf_weight=397.386225938797 774.18331322073936 864.49021998047829 785.97183707356453 102.95952051877975 37.372870475053787
leaf_count=1343 2641 2903 2636 350 127
internal_value=0 -0.0039397 -0.00179198 0.00271105 0.010477
internal_weight=0 2150.81 1753.42 967.45 811.556
internal_count=10000 7232 5889 3253 2768
is_linear=0
shrinkage=0.01


Tree=79
num_leaves=6
num_cat=0
split_feature=45 10 2 10 15
split_gain=1046.77 965.233 344.078 107.724 65.8587
threshold=3.3976445342762491 0.54586268901596469 2.0032682043635095 1.0696617515421767 1.0152560175405763
decision_type=10 8 10 8 10
left_child=1 4 -3 -2 -1
right_child=3 2 -4 -5 -6
leaf_value=0.02199644131351031 0.0071982261876441488 -0.0079024293300391651 0.029863735348526436 0.037240632907573824 -0.0054068053681046455
leaf_weight=144.03339862823486 14.138226345181463 860.76462108641863 24.81484716385603 76.699760518968105 9.3369338512420637
leaf_count=946 96 8306 152 435 65
internal_value=0 -0.00283279 -0.00684402 0.0325654 0.0203281
internal_weight=0 1038.95 885.579 90.838 153.37
internal_count=10000 9469 8458 531 1011
is_linear=0
shrinkage=0.01


Tree=80
num_leaves=6
num_cat=0
split_feature=71 46 10 45 71
split_gain=1393.04 631.847 319.399 264.731 124.849
threshold=0.99059668065637252 36.699684904760581 0.54586268901596469 2.5564339918510073 0.15782473568358518
decision_type=10 2 8 10 10
left_child=1 2 -1 -3 -4
right_child=-2 3 4 -5 -6
leaf_value=0.015639556756434889 -0.0097241520356962791 0.027138201714576801 -0.0024537695527635053 -0.0089921267895149478 0.014033660246022628
leaf_weight=165.41671800613403 768.42084813117981 197.96069787442684 404.32487674057484 22.591814488172531 51.808827221393585
leaf_count=872 5201 977 2521 144 285
internal_value=0 0.00889597 0.00373599 0.0234372 -0.000580952
internal_weight=0 842.103 621.55 220.553 456.134
internal_count=10000 4799 3678 1121 2806
is_linear=0
shrinkage=0.01


Tree=81
num_leaves=6
num_cat=0
split_feature=15 5 15 19 15
split_gain=1285.07 1225.49 241.107 126.899 108.832
threshold=0.61076785172821546 11.584716876813657 0.097205187330208359 22.145159621979925 0.28175302788302692
decision_type=8 2 10 2 10
left_child=1 2 3 -1 -3
right_child=-2 4 -4 -5 -6
leaf_value=0.030035822240889028 -0.0077058835399933367 -0.0082021681915846658 0.042763220117187785 -0.002518204665113754 0.037262905517825649
leaf_weight=28.683003485202789 663.90422061830759 120.2035962715745 118.97236953675747 20.551819935441017 5.5012974441051474
leaf_count=204 7505 1402 669 186 34
internal_value=0 0.0174096 0.0350614 0.0164481 -0.00621105
internal_weight=0 293.912 168.207 49.2348 125.705
internal_count=10000 2495 1059 390 1436
is_linear=0
shrinkage=0.01


Tree=82
num_leaves=6
num_cat=0
split_feature=10 10 10 49 71
split_gain=1000.99 1101.15 84.8612 90.3793 58.1064
threshold=0.80084154163045951 0.54586268901596469 0.92051801008022782 44.352484040574296 1.0168261077088643
decision_type=8 10 10 10 10
left_child=1 -1 3 -2 -5
right_child=2 -3 -4 4 -6
leaf_value=-0.0087712892104623314 -0.0025459641161216422 0.047564561824048099 -0.0087640012062225586 0.002082735811171845 0.042256413158913021
leaf_weight=60.876483347266912 63.898569103330374 80.667747296392918 403.28062200546265 6.3218913786113253 8.3597882688045484
leaf_count=1072 1051 495 7208 82 92
internal_value=0 0.0233357 -0.00691157 0.00259523 0.0249643
internal_weight=0 141.544 481.861 78.5802 14.6817
internal_count=10000 1567 8433 1225 174
is_linear=0
shrinkage=0.01


Tree=83
num_leaves=6
num_cat=0
split_feature=22 22 10 15 5
split_gain=2666.39 49.8665 49.008 36.2928 11.8358
threshold=0.62388389870393246 0.62388389870393246 1.0741518523302336 1.0211575974844604 19.656671415888933
decision_type=10 8 8 10 2
left_child=1 -1 -3 -4 -2
right_child=4 2 3 -5 -6
leaf_value=-0.0085757870031108532 0.044250006641524793 -0.0086935629062305664 -0.0060760103310242902 0.011646833749613983 0.029020164783472135
leaf_weight=603.74025047197938 114.29945920407772 42.867793507874012 17.317749813199043 34.699838794767857 5.3810751363635054
leaf_count=8166 627 576 221 376 34
internal_value=0 -0.00751665 -0.000777413 0.00574651 0.0435665
internal_weight=0 698.626 94.8854 52.0176 119.681
internal_count=10000 9339 1173 597 661
is_linear=0
shrinkage=0.01


Tree=84
num_leaves=6
num_cat=0
split_feature=5 10 46 22 22
split_gain=1197.08 427.095 427.398 334.16 236.456
threshold=15.562959380993691 0.71635089224437531 20.417210864799053 0.62388389870393246 0.94886008272325417
decision_type=2 8 2 10 10
left_child=1 -1 3 -3 -2
right_child=4 2 -4 -5 -6
leaf_value=-0.01326986526856765 0.011562723440758142 0.0047051473200985881 -0.0072538288378311512 -0.014383053570936289 -0.014231530415881615
leaf_weight=396.33019810914993 771.98327213525772 863.75424510240555 785.3355567753315 102.60112044215202 37.24988266825676
leaf_count=1343 2641 2903 2636 350 127
internal_value=0 -0.00389554 -0.00177451 0.00267843 0.0103753
internal_weight=0 2148.02 1751.69 966.355 809.233
internal_count=10000 7232 5889 3253 2768
is_linear=0
shrinkage=0.01


Tree=85
num_leaves=6
num_cat=0
split_feature=45 10 2 10 26
split_gain=1007.73 939.047 335.078 101.012 63.4007
threshold=3.3976445342762491 0.54586268901596469 2.0032682043635095 1.0696617515421767 147978.47083109841
decision_type=10 8 10 8 10
left_child=1 -1 -3 -2 -4
right_child=3 2 4 -5 -6
leaf_value=0.019807590545791915 0.0070643795234471328 -0.0078846953256171155 0.03744231929639491 0.03601629646927889 -0.00075252686747503028
leaf_weight=155.87890581786633 14.236115023493765 854.3341049849987 19.735441789031032 78.601603463292122 5.5725806429982176
leaf_count=1011 96 8306 113 435 39
internal_value=0 -0.00281363 -0.00682236 0.0315773 0.0290337
internal_weight=0 1035.52 879.642 92.8377 25.308
internal_count=10000 9469 8458 531 152
is_linear=0
shrinkage=0.01


Tree=86
num_leaves=6
num_cat=0
split_feature=71 46 10 45 71
split_gain=1366.88 604.129 308.581 251.597 121.802
threshold=0.99059668065637252 36.699684904760581 0.54586268901596469 2.5564339918510073 0.15782473568358518
decision_type=10 2 8 10 10
left_child=1 2 -1 -3 -4
right_child=-2 3 4 -5 -6
leaf_value=0.015305771794411291 -0.0097073846112554936 0.026370368982131024 -0.0024344386691098814 -0.0089648897454631029 0.013788469842299502
leaf_weight=167.29677772521973 761.66487498581409 201.60935011506081 403.47241015732288 22.385843187570572 52.271505415439606
leaf_count=872 5201 977 2521 144 285
internal_value=0 0.0087542 0.00369035 0.0228389 -0.000573623
internal_weight=0 847.036 623.041 223.995 455.744
internal_count=10000 4799 3678 1121 2806
is_linear=0
shrinkage=0.01


Tree=87
num_leaves=6
num_cat=0
split_feature=15 5 15 15 15
split_gain=1255.35 1161.42 224.824 105.296 63.7817
threshold=0.61076785172821546 11.584716876813657 0.08332985040092282 0.25245000431329939 0.61076785172821546
decision_type=8 2 10 8 10
left_child=1 2 -1 -3 -2
right_child=4 3 -4 -5 -6
leaf_value=0.00941566081351255 -0.0004111257931377177 -0.0081861611110902403 0.039206818110017645 0.035998113393352162 -0.0090195157989776502
leaf_weight=30.855519115924835 101.7885650396347 119.03784232586622 141.59945926070213 5.6446695029735556 557.38071447610855
leaf_count=269 1158 1402 790 34 6347
internal_value=0 0.0170669 0.033877 -0.00618447 -0.00769023
internal_weight=0 297.137 172.455 124.683 659.169
internal_count=10000 2495 1059 1436 7505
is_linear=0
shrinkage=0.01


Tree=88
num_leaves=6
num_cat=0
split_feature=10 10 10 49 71
split_gain=968.313 1025.87 84.4684 86.9814 54.9887
threshold=0.80084154163045951 0.54586268901596469 0.92051801008022782 44.352484040574296 1.0110507439135776
decision_type=8 10 10 10 8
left_child=1 -1 3 -2 -5
right_child=2 -3 -4 4 -6
leaf_value=-0.008767332714812108 -0.0025252693966313854 0.045301578387207567 -0.008759822527809883 -0.0089337685315131407 0.03529667164515516
leaf_weight=60.353683095425367 63.702756132930517 83.825599104166031 399.62879423424602 3.7448995634913427 11.242868725210426
leaf_count=1072 1051 495 7208 51 123
internal_value=0 0.0226687 -0.00689509 0.00257489 0.0242458
internal_weight=0 144.179 478.319 78.6905 14.9878
internal_count=10000 1567 8433 1225 174
is_linear=0
shrinkage=0.01


Tree=89
num_leaves=6
num_cat=0
split_feature=22 22 10 71 37
split_gain=2541.76 49.8036 48.4242 35.8564 10.8421
threshold=0.62388389870393246 0.62388389870393246 1.0741518523302336 0.9993791424883034 775147.79878934042
decision_type=10 8 8 8 10
left_child=1 -1 -3 -4 -2
right_child=4 2 3 -5 -6
leaf_value=-0.0085671411398892724 0.042342680023711159 -0.0086860756680789148 -0.0090197603412731156 0.010357799023802966 0.027947655906227529
leaf_weight=598.53989574685693 118.20799762010574 42.510954268276691 12.576165005564688 39.627278722822666 5.5155315548181525
leaf_count=8166 628 576 150 447 33
internal_value=0 -0.00750093 -0.000763019 0.0056892 0.0417021
internal_weight=0 693.254 94.7144 52.2034 123.724
internal_count=10000 9339 1173 597 661
is_linear=0
shrinkage=0.01


Tree=90
num_leaves=6
num_cat=0
split_feature=5 10 46 22 22
split_gain=1170.43 423.753 418.103 374.686 217.451
threshold=15.721066521034386 1.0442672286911496 28.837070423275446 0.62388389870393246 0.94886008272325417
decision_type=2 8 2 10 10
left_child=1 -1 3 -3 -2
right_child=4 2 -4 -5 -6
leaf_value=-0.012373252806224208 0.011496468047257831 0.0036605360818671357 -0.0091522178526493667 -0.0142984972898926 -0.014072154562255903
leaf_weight=456.13468870520592 760.53448724746704 1065.4382113218307 504.59646490216255 130.3844039440155 34.779078960418701
leaf_count=1549 2610 3581 1695 446 119
internal_value=0 -0.00381461 -0.00151874 0.00170235 0.0103783
internal_weight=0 2156.55 1700.42 1195.82 795.314
internal_count=10000 7271 5722 4027 2729
is_linear=0
shrinkage=0.01


Tree=91
num_leaves=6
num_cat=0
split_feature=45 10 2 10 15
split_gain=971.246 898.511 351.486 78.3673 74.0114
threshold=4.8506809777360695 0.54586268901596469 1.587529687699776 1.0696617515421767 1.0152560175405763
decision_type=10 8 10 8 10
left_child=1 4 -3 -2 -1
right_child=3 2 -4 -5 -6
leaf_value=0.020983812184728209 0.0083458955589138274 -0.007811826820204924 0.026017433882656572 0.036367164079081873 -0.0060539450083439816
leaf_weight=149.38646425306797 11.557867474853991 849.87628685683012 31.859786696732044 73.295949637889862 10.857989877462385
leaf_count=949 77 8321 194 385 74
internal_value=0 -0.0026306 -0.00658933 0.0325511 0.0191516
internal_weight=0 1041.98 881.736 84.8538 160.244
internal_count=10000 9538 8515 462 1023
is_linear=0
shrinkage=0.01


Tree=92
num_leaves=6
num_cat=0
split_feature=71 46 10 45 71
split_gain=1341.24 578.005 298.144 239.386 118.819
threshold=0.99059668065637252 36.699684904760581 0.54586268901596469 2.5564339918510073 0.15782473568358518
decision_type=10 2 8 10 10
left_child=1 2 -1 -3 -4
right_child=-2 3 4 -5 -6
leaf_value=0.014981387898843701 -0.0096907630717448824 0.025641267323454203 -0.0024149146832783668 -0.0089380690592839908 0.013548222139930595
leaf_weight=169.15511749684811 754.90623360127211 205.17124012112617 402.6110961586237 22.18224124610424 52.730978891253471
leaf_count=872 5201 977 2521 144 285
internal_value=0 0.00861545 0.00364522 0.0222673 -0.000566172
internal_weight=0 851.851 624.497 227.353 455.342
internal_count=10000 4799 3678 1121 2806
is_linear=0
shrinkage=0.01


Tree=93
num_leaves=6
num_cat=0
split_feature=15 5 15 19 15
split_gain=1226.82 1102.41 210.06 117.882 102.429
threshold=0.61076785172821546 11.584716876813657 0.097205187330208359 22.145159621979925 0.11272152762028891
decision_type=8 2 10 2 10
left_child=1 2 3 -1 -3
right_child=-2 4 -4 -5 -6
leaf_value=0.028326626938308085 -0.0076745531910250046 -0.0084997324830748486 0.039700957565720119 -0.0026451441001893532 0.029206020221916457
leaf_weight=29.900704897940159 654.45891042053699 115.987823612988 125.83087420463562 20.860021963715553 7.6768655627965918
leaf_count=204 7505 1381 669 186 55
internal_value=0 0.0167394 0.0327738 0.0155998 -0.00615795
internal_weight=0 300.256 176.592 50.7607 123.665
internal_count=10000 2495 1059 390 1436
is_linear=0
shrinkage=0.01


Tree=94
num_leaves=6
num_cat=0
split_feature=10 10 10 49 5
split_gain=937.343 958.609 84.0855 83.7659 52.7819
threshold=0.80084154163045951 0.54586268901596469 0.92051801008022782 44.352484040574296 11.720745378947246
decision_type=8 10 10 10 2
left_child=1 -1 3 -2 -5
right_child=2 -3 -4 4 -6
leaf_value=-0.0087634147971246464 -0.0025039447290265281 0.043247535646688935 -0.0087556875146167605 0.035810184588242547 -0.0046151937686239545
leaf_weight=59.834201321005821 63.502033893018961 86.896794840693474 395.99945429340005 10.656943760812281 4.6318932808935633
leaf_count=1072 1051 495 7208 111 63
internal_value=0 0.0220389 -0.00687855 0.00255582 0.0235654
internal_weight=0 146.731 474.79 78.7909 15.2888
internal_count=10000 1567 8433 1225 174
is_linear=0
shrinkage=0.01


Tree=95
num_leaves=6
num_cat=0
split_feature=22 22 10 15 86
split_gain=2427.46 49.7428 47.8482 35.2286 10.1612
threshold=0.62388389870393246 0.62388389870393246 1.0741518523302336 1.0211575974844604 19374139786253.371
decision_type=10 8 8 10 10
left_child=1 -1 -3 -4 -2
right_child=4 2 3 -5 -6
leaf_value=-0.008558518249930442 0.040631280829342663 -0.0086786212111230263 -0.0060648009544914203 0.011379999887643218 0.027367424008193836
leaf_weight=593.36803622543812 121.5301868468523 42.155743606388569 17.260470524430275 35.129857242107391 6.1090306639671317
leaf_count=8166 626 576 221 376 35
internal_value=0 -0.00748514 -0.000748528 0.00563262 0.0399975
internal_weight=0 687.914 94.5461 52.3903 127.639
internal_count=10000 9339 1173 597 661
is_linear=0
shrinkage=0.01


Tree=96
num_leaves=6
num_cat=0
split_feature=5 10 46 22 22
split_gain=1144.41 407.395 409.725 318.52 225.637
threshold=15.562959380993691 0.71635089224437531 20.417210864799053 0.62388389870393246 0.94886008272325417
decision_type=2 8 2 10 10
left_child=1 -1 3 -3 -2
right_child=4 2 -4 -5 -6
leaf_value=-0.012995496598429419 0.011342582209754235 0.004601386409504307 -0.007109626055229531 -0.014100322978553889 -0.013948483239273867
leaf_weight=394.03997984528542 767.27836096286774 862.20511829853058 783.67366993427277 101.81985846161842 36.971505701541901
leaf_count=1343 2641 2903 2636 350 127
internal_value=0 -0.00381039 -0.00173946 0.00262606 0.0101799
internal_weight=0 2141.74 1747.7 964.025 804.25
internal_count=10000 7232 5889 3253 2768
is_linear=0
shrinkage=0.01


Tree=97
num_leaves=6
num_cat=0
split_feature=45 10 2 85 35
split_gain=937.587 890.258 318.632 92.8612 59.4259
threshold=3.3976445342762491 0.54586268901596469 2.0032682043635095 0.26241558645969693 66.704737425173974
decision_type=10 8 10 8 2
left_child=1 -1 -3 -2 -4
right_child=3 2 4 -5 -6
leaf_value=0.018841573313628332 0.014864335300262956 -0.0078493407713161687 0.035137787661471159 0.036240935677448766 -0.002242893597591738
leaf_weight=160.7343692779541 29.084182508289814 841.61122006177902 20.900968462228779 67.524813294410706 5.3382265493273726
leaf_count=1011 188 8306 115 343 37
internal_value=0 -0.00277559 -0.00677939 0.0298066 0.0275339
internal_weight=0 1028.58 867.85 96.609 26.2392
internal_count=10000 9469 8458 531 152
is_linear=0
shrinkage=0.01


Tree=98
num_leaves=6
num_cat=0
split_feature=71 46 10 45 44
split_gain=1316.36 552.741 290.847 228.202 122.119
threshold=0.99059668065637252 37.716846366203455 0.54586268901596469 2.5564339918510073 30.42636593752766
decision_type=10 2 8 10 2
left_child=1 2 -1 4 -3
right_child=-2 3 -4 -5 -6
leaf_value=0.014739013918069374 -0.0096744292281074635 0.0097798429617406996 -0.00043649903011980815 -0.0088917225565217899 0.02927900146621774
leaf_weight=174.04200085997581 748.18977431207895 40.163940101861954 460.28620083630085 21.515630498528481 160.45958715677261
leaf_count=887 5201 214 2834 141 723
internal_value=0 0.00848142 0.00372732 0.0220565 0.0253757
internal_weight=0 856.467 634.328 222.139 200.624
internal_count=10000 4799 3721 1078 937
is_linear=0
shrinkage=0.01


Tree=99
num_leaves=6
num_cat=0
split_feature=15 5 15 15 19
split_gain=1199.3 1047.85 199.675 99.7774 79.6398
threshold=0.61076785172821546 11.584716876813657 0.072421378497039154 0.11272152762028891 25.937608766700034
decision_type=8 2 10 8 2
left_child=1 2 -1 -3 -4
right_child=-2 3 4 -5 -6
leaf_value=8.8381932105170791e-05 -0.0076587313492263026 -0.0084865579462583031 0.038234599409359853 0.02839772093764294 0.018898968057225771
leaf_weight=17.946273170411587 649.73893249034882 114.82182344794273 137.42916791886091 7.8297042995691291 25.227191098034382
leaf_count=156 7505 1381 739 55 164
internal_value=0 0.0164255 0.0317439 -0.00613091 0.0352364
internal_weight=0 303.254 180.603 122.652 162.656
internal_count=10000 2495 1059 1436 903
is_linear=0
shrinkage=0.01


Tree=100
num_leaves=6
num_cat=0
split_feature=10 10 10 49 71
split_gain=908.116 898.073 83.7022 80.7802 50.5789
threshold=0.80084154163045951 0.54586268901596469 0.92051801008022782 44.352484040574296 1.0110507439135776
decision_type=8 10 10 10 8
left_child=1 -1 3 -2 -5
right_child=2 -3 -4 4 -6
leaf_value=-0.0087593855844614096 -0.0024833762270648966 0.04137566631301566 -0.0087515991560105748 -0.0089404036081525886 0.033111680351332981
leaf_weight=59.299965091049671 63.30917639285326 89.880588367581367 392.38988480344415 3.7715506255626661 11.807763099670408
leaf_count=1072 1051 495 7208 51 123
internal_value=0 0.0214471 -0.00686198 0.00253688 0.0229318
internal_weight=0 149.181 471.278 78.8885 15.5793
internal_count=10000 1567 8433 1225 174
is_linear=0
shrinkage=0.01


Tree=101
num_leaves=6
num_cat=0
split_feature=22 22 10 71 5
split_gain=2320.87 49.6829 47.2986 34.9515 9.68422
threshold=0.62388389870393246 0.62388389870393246 1.0741518523302336 0.9993791424883034 19.656671415888933
decision_type=10 8 8 8 2
left_child=1 -1 -3 -4 -2
right_child=4 2 3 -5 -6
leaf_value=-0.0085498654539866888 0.038998175955466702 -0.0086712682081824134 -0.0090163656277911456 0.010134777333666065 0.025770828647706762
leaf_weight=588.18882266059518 125.64932730793953 41.805806759744883 12.499188371002672 40.062366299331188 5.8312258869409552
leaf_count=8166 627 576 150 447 34
internal_value=0 -0.00746922 -0.00073349 0.00558019 0.0384125
internal_weight=0 682.556 94.3674 52.5616 131.481
internal_count=10000 9339 1173 597 661
is_linear=0
shrinkage=0.01


Tree=102
num_leaves=6
num_cat=0
split_feature=5 10 46 22 22
split_gain=1118.62 397.902 400.218 310.767 220.509
threshold=15.562959380993691 0.71635089224437531 20.417210864799053 0.62388389870393246 0.94886008272325417
decision_type=2 8 2 10 10
left_child=1 -1 3 -3 -2
right_child=4 2 -4 -5 -6
leaf_value=-0.012861874636335171 0.011234162468157081 0.0045449925265463025 -0.0070318854532410106 -0.013963634527042624 -0.013817284022479111
leaf_weight=392.7748955488205 764.76830440759659 861.3796189725399 782.8557348549366 101.39012005925179 36.824574500322342
leaf_count=1343 2641 2903 2636 350 127
internal_value=0 -0.0037681 -0.00172193 0.00259577 0.0100832
internal_weight=0 2138.4 1745.63 962.77 801.593
internal_count=10000 7232 5889 3253 2768
is_linear=0
shrinkage=0.01


Tree=103
num_leaves=6
num_cat=0
split_feature=45 10 2 10 15
split_gain=905.181 867.086 311.003 87.6452 58.3946
threshold=3.3976445342762491 0.54586268901596469 2.0032682043635095 1.0696617515421767 1.0152560175405763
decision_type=10 8 10 8 10
left_child=1 4 -3 -2 -1
right_child=3 2 -4 -5 -6
leaf_value=0.019878335397359972 0.0064595008751494225 -0.0078314505874374132 0.026846747956999355 0.032942024316279336 -0.0055718529616900561
leaf_weight=153.55214783549309 14.692327477037905 835.23766366392374 26.682936295866966 83.742817118763924 9.5757893174886686
leaf_count=946 96 8306 152 435 65
internal_value=0 -0.00275654 -0.00675775 0.0289898 0.0183843
internal_weight=0 1025.05 861.921 98.4351 163.128
internal_count=10000 9469 8458 531 1011
is_linear=0
shrinkage=0.01


Tree=104
num_leaves=6
num_cat=0
split_feature=71 44 10 5 71
split_gain=1292.08 532.713 229.466 193.443 177.636
threshold=0.99059668065637252 41.793847891997167 0.54586268901596469 15.219361545904386 0.15782473568358518
decision_type=10 2 8 2 10
left_child=1 2 -1 -3 -4
right_child=-2 3 4 -5 -6
leaf_value=0.01351591916431385 -0.0096582611854255027 0.024099993790429593 -0.0024572142905913957 -0.0054890723121085918 0.017055706553662293
leaf_weight=166.69399167597294 741.49437040090561 214.15992663800716 402.69868066906929 24.634611159563065 52.76169727742672
leaf_count=848 5201 996 2522 155 278
internal_value=0 0.00835081 0.00347746 0.0210475 -0.000196625
internal_weight=0 860.949 622.154 238.795 455.46
internal_count=10000 4799 3648 1151 2800
is_linear=0
shrinkage=0.01


Tree=105
num_leaves=6
num_cat=0
split_feature=15 5 15 15 19
split_gain=1172.8 997.327 187.753 97.194 74.0103
threshold=0.61076785172821546 11.584716876813657 0.072421378497039154 0.11272152762028891 25.937608766700034
decision_type=8 2 10 10 2
left_child=1 2 -1 -3 -4
right_child=-2 3 4 -5 -6
leaf_value=7.1787651026282588e-05 -0.007642901255964684 -0.0084734204776254606 0.036932947895279206 0.027612794851930293 0.018443300165897167
leaf_weight=17.972968481481075 645.05319794267416 113.66530477255583 140.94873318821192 7.9834266230463973 25.595954887568951
leaf_count=156 7505 1381 739 55 164
internal_value=0 0.016124 0.0307783 -0.00610416 0.0340919
internal_weight=0 306.166 184.518 121.649 166.545
internal_count=10000 2495 1059 1436 903
is_linear=0
shrinkage=0.01


Tree=106
num_leaves=6
num_cat=0
split_feature=10 10 10 49 15
split_gain=880.294 843.715 83.311 77.8692 48.823
threshold=0.80084154163045951 0.54586268901596469 0.92051801008022782 44.352484040574296 1.048199376420218
decision_type=8 10 10 10 10
left_child=1 -1 3 -2 -5
right_child=2 -3 -4 4 -6
leaf_value=-0.0087554987870607903 -0.0024625467403139186 0.039666379632097806 -0.0087475363049514705 -0.0016940120318720366 0.035119062694657886
leaf_weight=58.781834032386541 63.115000266581774 92.771280512213707 388.79603379592299 5.5241319648921481 10.349858187139032
leaf_count=1072 1051 495 7208 76 98
internal_value=0 0.0208857 -0.00684538 0.00251729 0.0223117
internal_weight=0 151.553 467.785 78.989 15.874
internal_count=10000 1567 8433 1225 174
is_linear=0
shrinkage=0.01


Tree=107
num_leaves=6
num_cat=0
split_feature=22 22 10 15 66
split_gain=2223.86 49.6227 46.7276 34.1901 9.17307
threshold=0.62388389870393246 0.62388389870393246 1.0741518523302336 1.0211575974844604 38091648736526.18
decision_type=10 8 8 10 2
left_child=1 -1 -3 -4 -2
right_child=4 2 3 -5 -6
leaf_value=-0.0085412828160062303 0.037560088817093697 -0.008663733636938193 -0.0060516498495839649 0.011122679747085988 0.025307716727465124
leaf_weight=583.07442024722695 128.67842151224613 41.44775728136301 17.193773023784161 35.553759567439556 6.4602903127670279
leaf_count=8166 624 576 221 376 37
internal_value=0 -0.00745333 -0.000718765 0.00552443 0.0369753
internal_weight=0 677.27 94.1953 52.7475 135.139
internal_count=10000 9339 1173 597 661
is_linear=0
shrinkage=0.01


Tree=108
num_leaves=6
num_cat=0
split_feature=5 10 46 22 22
split_gain=1093.44 395.325 395.03 312.37 202.791
threshold=15.721066521034386 0.71635089224437531 19.476276947701638 0.62388389870393246 0.94886008272325417
decision_type=2 8 2 10 10
left_child=1 -1 3 -3 -2
right_child=4 2 -4 -5 -6
leaf_value=-0.012747254796931425 0.011171334827025646 0.0047924738950739414 -0.0067338982374346634 -0.013832223122098468 -0.013669659344069052
leaf_weight=393.52632167935371 753.0504686832428 834.31330627202988 817.5339580476284 100.94239863753319 34.358761698007584
leaf_count=1350 2610 2815 2756 350 119
internal_value=0 -0.00368982 -0.00165627 0.00278224 0.0100873
internal_weight=0 2146.32 1752.79 935.256 787.409
internal_count=10000 7271 5921 3165 2729
is_linear=0
shrinkage=0.01


Tree=109
num_leaves=6
num_cat=0
split_feature=71 45 85 10 45
split_gain=878.03 474.493 282.75 398.144 113.748
threshold=0.094592272129891672 2.5564339918510073 0.26241558645969693 1.0321706113652571 4.8506809777360695
decision_type=8 10 10 10 10
left_child=2 -2 3 -1 -5
right_child=1 -3 -4 4 -6
leaf_value=0.01955968306982472 -0.0077731768282687831 0.026066622739830875 0.037719045736928108 -0.0067732221943683025 0.026286628078723326
leaf_weight=177.91001748293638 733.33847276121378 43.912201233208179 41.732462711632252 113.35184540599585 11.454601794481276
leaf_count=1174 7220 245 210 1089 62
internal_value=0 -0.00586118 0.0133188 0.00995438 -0.00373809
internal_weight=0 777.251 344.449 302.716 124.806
internal_count=10000 7465 2535 2325 1151
is_linear=0
shrinkage=0.01


Tree=110
num_leaves=6
num_cat=0
split_feature=71 46 10 45 71
split_gain=1268.47 514.828 270.789 212.045 112.938
threshold=0.99059668065637252 36.699684904760581 0.54586268901596469 2.5564339918510073 0.15782473568358518
decision_type=10 2 8 10 10
left_child=1 2 -1 -3 -4
right_child=-2 3 4 -5 -6
leaf_value=0.014093176805431219 -0.0096423681801458688 0.023839265734318764 -0.002386204877673135 -0.0088918415147894413 0.01305825225981796
leaf_weight=174.39217633008957 734.8462218567729 214.28627561032772 401.12815281003714 21.804443255066872 53.678855881094933
